{"sizes":[140,140,92],"layers":[{"0":{},"1":{},"2":{},"3":{},"4":{},"5":{},"6":{},"7":{},"8":{},"9":{},"10":{},"11":{},"12":{},"13":{},"14":{},"15":{},"16":{},"17":{},"18":{},"19":{},"20":{},"21":{},"22":{},"23":{},"24":{},"25":{},"26":{},"27":{},"28":{},"29":{},"30":{},"31":{},"32":{},"33":{},"34":{},"35":{},"36":{},"37":{},"38":{},"39":{},"40":{},"41":{},"42":{},"43":{},"44":{},"45":{},"46":{},"47":{},"48":{},"49":{},"50":{},"51":{},"52":{},"53":{},"54":{},"55":{},"56":{},"57":{},"58":{},"59":{},"60":{},"61":{},"62":{},"63":{},"64":{},"65":{},"66":{},"67":{},"68":{},"69":{},"70":{},"71":{},"72":{},"73":{},"74":{},"75":{},"76":{},"77":{},"78":{},"79":{},"80":{},"81":{},"82":{},"83":{},"84":{},"85":{},"86":{},"87":{},"88":{},"89":{},"90":{},"91":{},"92":{},"93":{},"94":{},"95":{},"96":{},"97":{},"98":{},"99":{},"100":{},"101":{},"102":{},"103":{},"104":{},"105":{},"106":{},"107":{},"108":{},"109":{},"110":{},"111":{},"112":{},"113":{},"114":{},"115":{},"116":{},"117":{},"118":{},"119":{},"120":{},"121":{},"122":{},"123":{},"124":{},"125":{},"126":{},"127":{},"128":{},"129":{},"130":{},"131":{},"132":{},"133":{},"134":{},"135":{},"136":{},"137":{},"138":{},"139":{}},{"0":{"bias":0.14918729662895203,"weights":{"0":0.03493542969226837,"1":-0.15352997183799744,"2":-0.06277931481599808,"3":0.17413517832756042,"4":0.08030085265636444,"5":-0.09802954643964767,"6":-0.1350347399711609,"7":0.19080866873264313,"8":-0.19351907074451447,"9":-0.11009126901626587,"10":-0.10962086170911789,"11":0.15373677015304565,"12":-0.003262097481638193,"13":0.11855448782444,"14":-0.15852372348308563,"15":-0.18409879505634308,"16":-0.26377010345458984,"17":-0.020738596096634865,"18":-0.17043723165988922,"19":0.016738535836338997,"20":0.04784140735864639,"21":0.0024483215529471636,"22":0.03879377618432045,"23":0.11546827852725983,"24":0.15297721326351166,"25":-0.08317719399929047,"26":-0.13627061247825623,"27":-0.1935614049434662,"28":-0.40131905674934387,"29":-0.5475809574127197,"30":-0.7497174143791199,"31":-0.2091677039861679,"32":-0.017804574221372604,"33":0.45866265892982483,"34":0.25001654028892517,"35":-0.11803372949361801,"36":-0.16663822531700134,"37":0.3397161364555359,"38":0.530163049697876,"39":-0.1531555950641632,"40":-0.00027498137205839157,"41":-0.09616000950336456,"42":-0.46558451652526855,"43":-0.630233645439148,"44":-0.005325567442923784,"45":0.07697954028844833,"46":-0.3271067440509796,"47":0.2761352062225342,"48":0.8055547475814819,"49":0.23885416984558105,"50":0.4263497591018677,"51":0.027992092072963715,"52":-0.5293480157852173,"53":-0.4785540699958801,"54":-0.6520301103591919,"55":-0.6151147484779358,"56":-0.704375684261322,"57":-0.03514697030186653,"58":0.1581379771232605,"59":0.07583852857351303,"60":-0.06311609596014023,"61":0.0219590924680233,"62":0.37436532974243164,"63":0.21507233381271362,"64":-0.1572733372449875,"65":0.3599950969219208,"66":0.3829735219478607,"67":-0.7342659831047058,"68":-0.4981982707977295,"69":-0.6617653369903564,"70":-0.12883248925209045,"71":-0.2233859747648239,"72":0.38842833042144775,"73":0.36182746291160583,"74":0.3249085545539856,"75":0.37349650263786316,"76":0.056417010724544525,"77":0.2677338421344757,"78":-0.07440397143363953,"79":-0.3821396231651306,"80":-0.035926349461078644,"81":-0.5196359157562256,"82":-0.16330590844154358,"83":-0.0824388936161995,"84":0.08922500908374786,"85":-0.04489263519644737,"86":-0.023982390761375427,"87":0.6976833939552307,"88":0.05122444033622742,"89":0.12467729300260544,"90":-0.425358384847641,"91":0.275576651096344,"92":-0.04074857756495476,"93":-0.07325801998376846,"94":-0.1994572877883911,"95":0.2856347858905792,"96":-0.003922457806766033,"97":-0.10112125426530838,"98":0.1845671832561493,"99":-0.4412056803703308,"100":-0.2293415069580078,"101":0.049232400953769684,"102":-0.2164442092180252,"103":-0.5177475214004517,"104":-0.4554940462112427,"105":-0.26720544695854187,"106":-0.2343890368938446,"107":-0.009212575852870941,"108":0.14042671024799347,"109":0.5336515307426453,"110":0.57224440574646,"111":0.37366554141044617,"112":0.0711493119597435,"113":0.018257586285471916,"114":-0.04724681377410889,"115":-0.5183252692222595,"116":-0.34189292788505554,"117":-0.1849200576543808,"118":-0.01811213046312332,"119":0.014038603752851486,"120":0.08905108273029327,"121":-0.05972828343510628,"122":0.37766188383102417,"123":-0.13424567878246307,"124":0.22512531280517578,"125":-0.0029977422673255205,"126":-0.04063999280333519,"127":-0.07585238665342331,"128":0.06113417446613312,"129":-0.09912595897912979,"130":0.12594009935855865,"131":0.11400418728590012,"132":0.14679379761219025,"133":-0.08357375860214233,"134":0.10482211410999298,"135":0.17832691967487335,"136":-0.050692617893218994,"137":0.007395549211651087,"138":0.16189423203468323,"139":-0.14295798540115356}},"1":{"bias":-0.7122935652732849,"weights":{"0":0.10590469837188721,"1":-0.03210953623056412,"2":-0.18239864706993103,"3":-0.1521207094192505,"4":0.0360000841319561,"5":-0.18849003314971924,"6":0.09384230524301529,"7":0.019464390352368355,"8":0.18213528394699097,"9":0.10237859934568405,"10":-0.11289219558238983,"11":0.023946313187479973,"12":-0.1917792111635208,"13":0.04286107420921326,"14":0.01980803720653057,"15":-0.01856137439608574,"16":-0.25908637046813965,"17":-0.1001497283577919,"18":-0.060984738171100616,"19":0.2402554303407669,"20":-0.0017284450586885214,"21":-0.2525224983692169,"22":-0.13083600997924805,"23":-0.1572859287261963,"24":0.022105079144239426,"25":0.14932139217853546,"26":0.10620635002851486,"27":0.09904013574123383,"28":0.3557303547859192,"29":0.4997093677520752,"30":0.008240561001002789,"31":-0.06598587334156036,"32":0.22504951059818268,"33":0.8429937362670898,"34":0.5514264106750488,"35":0.042272571474313736,"36":-0.2591211199760437,"37":-0.3544856905937195,"38":-0.28302645683288574,"39":-0.0533439964056015,"40":0.18559642136096954,"41":0.2028464823961258,"42":-0.0014381901128217578,"43":-0.41922062635421753,"44":-0.08140041679143906,"45":0.3671022951602936,"46":-0.6182345151901245,"47":0.02922212705016136,"48":0.3021911084651947,"49":0.3454490900039673,"50":0.34179115295410156,"51":0.25045880675315857,"52":-0.3374256193637848,"53":-0.028727281838655472,"54":-0.024038545787334442,"55":-0.11915694922208786,"56":0.05687805637717247,"57":-0.33101946115493774,"58":-0.015103482641279697,"59":-0.09346882998943329,"60":0.06860978901386261,"61":-0.23561199009418488,"62":0.24837598204612732,"63":0.28841397166252136,"64":0.19422206282615662,"65":0.019756212830543518,"66":-0.8871698975563049,"67":0.09926695376634598,"68":0.0806916207075119,"69":-0.2814994156360626,"70":0.3046180009841919,"71":0.042660798877477646,"72":0.09177962690591812,"73":0.36149361729621887,"74":0.2886550724506378,"75":0.1117105707526207,"76":0.18043652176856995,"77":0.4500157833099365,"78":-0.04179498553276062,"79":0.14352646470069885,"80":-0.30810898542404175,"81":0.18081867694854736,"82":0.31306666135787964,"83":-0.07771971076726913,"84":-0.20788787305355072,"85":0.13541682064533234,"86":0.13573671877384186,"87":0.002432296983897686,"88":0.16808728873729706,"89":-0.13337615132331848,"90":0.5007078051567078,"91":0.3055279850959778,"92":-0.02903897687792778,"93":-0.13198013603687286,"94":-0.34987422823905945,"95":-0.004286576993763447,"96":-0.28176215291023254,"97":-0.10445354133844376,"98":0.08031902462244034,"99":0.3955270051956177,"100":-0.010764743201434612,"101":-0.5992467999458313,"102":-0.4290841519832611,"103":0.45066359639167786,"104":0.9413456916809082,"105":0.15518724918365479,"106":0.2591186463832855,"107":0.11567506939172745,"108":-0.22270280122756958,"109":0.24339774250984192,"110":0.2983439266681671,"111":0.485031396150589,"112":-0.12643101811408997,"113":0.8222753405570984,"114":0.4852335751056671,"115":0.3227802813053131,"116":-0.24363447725772858,"117":0.09895944595336914,"118":0.187841534614563,"119":-0.03537889942526817,"120":0.07377462089061737,"121":0.29978781938552856,"122":-0.05024987459182739,"123":-0.05914473161101341,"124":0.04050503298640251,"125":0.0028286532033234835,"126":-0.02316371724009514,"127":0.11282289028167725,"128":-0.07923800498247147,"129":0.1525372415781021,"130":0.18466563522815704,"131":0.05807197466492653,"132":0.051119327545166016,"133":0.029323801398277283,"134":0.049631379544734955,"135":-0.13169178366661072,"136":-0.11845595389604568,"137":0.06886861473321915,"138":-0.011459968984127045,"139":-0.03102697804570198}},"2":{"bias":-0.23598165810108185,"weights":{"0":-0.014068864285945892,"1":0.057512667030096054,"2":-0.16980254650115967,"3":0.0670829638838768,"4":-0.04049183055758476,"5":0.10998434573411942,"6":0.10892213135957718,"7":0.0069166431203484535,"8":0.07425728440284729,"9":0.17262202501296997,"10":-0.004063881002366543,"11":0.0469905361533165,"12":-0.03435248136520386,"13":-0.15327800810337067,"14":-0.006540393456816673,"15":0.08214963227510452,"16":-0.15154635906219482,"17":0.17798671126365662,"18":0.26850247383117676,"19":0.22122415900230408,"20":-0.025084424763917923,"21":-0.10357588529586792,"22":-0.16951695084571838,"23":-0.04843233525753021,"24":-0.1625826507806778,"25":0.113591767847538,"26":-0.19017070531845093,"27":0.12453331053256989,"28":0.3530442714691162,"29":0.45399209856987,"30":0.45263904333114624,"31":0.25583985447883606,"32":0.5006531476974487,"33":0.833520770072937,"34":0.6864004135131836,"35":0.39763906598091125,"36":0.5603327751159668,"37":0.17038287222385406,"38":0.30695298314094543,"39":0.02728295512497425,"40":0.06982003152370453,"41":-0.031947921961545944,"42":-0.06370871514081955,"43":-0.30842846632003784,"44":0.005183311644941568,"45":-0.5019062161445618,"46":-0.3015689551830292,"47":0.40256598591804504,"48":-0.2869149446487427,"49":-0.2809847295284271,"50":-0.12962450087070465,"51":-0.16388173401355743,"52":0.09228743612766266,"53":0.3892008364200592,"54":-0.3796200454235077,"55":0.13641373813152313,"56":-0.1729709655046463,"57":-0.30028703808784485,"58":-0.23879246413707733,"59":-0.6155862808227539,"60":-0.7333383560180664,"61":-0.5514583587646484,"62":-0.3267378509044647,"63":-0.4321766197681427,"64":-0.018353503197431564,"65":-0.32123884558677673,"66":-0.3793657422065735,"67":0.0991075336933136,"68":-0.3554091453552246,"69":0.13894419372081757,"70":-0.28801026940345764,"71":-0.41763240098953247,"72":0.5779893398284912,"73":0.5647493004798889,"74":0.18391472101211548,"75":1.1653153896331787,"76":0.6912810206413269,"77":-0.06910461187362671,"78":0.3929983675479889,"79":-0.13261283934116364,"80":-0.5457450747489929,"81":-0.32974785566329956,"82":-0.10322074592113495,"83":0.46577852964401245,"84":-0.02608422003686428,"85":-0.6145384311676025,"86":-0.0016410562675446272,"87":0.0012037872802466154,"88":-0.20804627239704132,"89":-0.3525635302066803,"90":-0.1317921280860901,"91":-0.6512398719787598,"92":0.0384695827960968,"93":0.038272108882665634,"94":-0.21835726499557495,"95":0.15829972922801971,"96":0.1874273121356964,"97":0.27373969554901123,"98":0.04027266800403595,"99":-0.6688367128372192,"100":-0.0925707072019577,"101":-0.5418025255203247,"102":-0.09282296150922775,"103":-0.1356445550918579,"104":-0.2701791226863861,"105":-0.1945676952600479,"106":-0.16776129603385925,"107":0.10350795090198517,"108":-0.25664499402046204,"109":0.04656718671321869,"110":0.0028405117336660624,"111":-0.1525752991437912,"112":-0.08519255369901657,"113":-0.023897072300314903,"114":0.17010194063186646,"115":0.037854988127946854,"116":0.23438438773155212,"117":0.32333049178123474,"118":0.058369603008031845,"119":-0.18740864098072052,"120":0.09741406887769699,"121":0.1941564530134201,"122":0.02079581469297409,"123":0.1789846271276474,"124":-0.11876608431339264,"125":0.27217504382133484,"126":0.062056779861450195,"127":-0.010313617065548897,"128":0.018377386033535004,"129":0.1246052160859108,"130":-0.08524458110332489,"131":-0.01892700232565403,"132":-0.04665261507034302,"133":-0.015452025458216667,"134":-0.14567407965660095,"135":-0.026808861643075943,"136":0.06873233616352081,"137":0.1779620498418808,"138":0.012967555783689022,"139":-0.14161163568496704}},"3":{"bias":0.632509171962738,"weights":{"0":0.025009384378790855,"1":-0.13865767419338226,"2":-0.028508152812719345,"3":-0.17478154599666595,"4":0.12643185257911682,"5":0.004179919604212046,"6":-0.030457770451903343,"7":0.15390029549598694,"8":-0.049147848039865494,"9":0.138335719704628,"10":0.16954576969146729,"11":0.045696377754211426,"12":-0.05787402018904686,"13":-0.17075598239898682,"14":0.09422458708286285,"15":-0.09842325001955032,"16":0.1082378700375557,"17":-0.09815143793821335,"18":-0.04895184189081192,"19":0.05749833211302757,"20":-0.09785836189985275,"21":-0.09353426843881607,"22":-0.18622802197933197,"23":0.04024596884846687,"24":0.18920113146305084,"25":0.05410093069076538,"26":-0.16816136240959167,"27":-0.15548758208751678,"28":0.08856122195720673,"29":0.45121535658836365,"30":0.5785995125770569,"31":0.4608907401561737,"32":0.21244899928569794,"33":-0.036964140832424164,"34":-0.2692681550979614,"35":-0.4362339973449707,"36":-0.2007676661014557,"37":-0.05365752428770065,"38":0.3324204385280609,"39":0.019830206409096718,"40":-0.07481305301189423,"41":-0.20427021384239197,"42":0.2140457183122635,"43":0.020891277119517326,"44":-0.5003659725189209,"45":-0.6664486527442932,"46":-0.20693114399909973,"47":0.1565665751695633,"48":-0.04100237414240837,"49":0.029855841770768166,"50":0.13665935397148132,"51":0.021783921867609024,"52":0.16403773427009583,"53":0.021521026268601418,"54":-0.5597913861274719,"55":-0.2440691590309143,"56":0.11567065864801407,"57":-0.34629783034324646,"58":-0.5216017365455627,"59":-0.10142644494771957,"60":-0.40069088339805603,"61":-0.3190847933292389,"62":-0.512424647808075,"63":0.5381688475608826,"64":0.32884350419044495,"65":0.5129636526107788,"66":0.5805394053459167,"67":-0.4153798818588257,"68":-0.38779333233833313,"69":-0.28505316376686096,"70":0.19355641305446625,"71":-0.05883486568927765,"72":0.06757509708404541,"73":-0.218171164393425,"74":-0.4692229926586151,"75":-0.7585073709487915,"76":-0.9040713906288147,"77":-0.02297801896929741,"78":-0.28324007987976074,"79":-0.22345371544361115,"80":-0.09523177891969681,"81":-0.06669028848409653,"82":-0.2981412410736084,"83":-0.5935348868370056,"84":0.2456989288330078,"85":-0.02285693772137165,"86":-0.37851935625076294,"87":-0.5619065165519714,"88":-0.22849468886852264,"89":0.17619013786315918,"90":0.337137371301651,"91":0.3656964600086212,"92":-0.32895034551620483,"93":-0.03322487697005272,"94":-0.2850837707519531,"95":0.23907750844955444,"96":-0.45423808693885803,"97":-0.3408685326576233,"98":-0.23681460320949554,"99":-0.31660792231559753,"100":-0.048637229949235916,"101":0.1517404168844223,"102":0.2900398373603821,"103":-0.04566936194896698,"104":0.07544922083616257,"105":0.0161722581833601,"106":0.32415270805358887,"107":0.11580508947372437,"108":-0.16890886425971985,"109":0.12271804362535477,"110":0.36619821190834045,"111":0.5047376751899719,"112":-0.004128725733608007,"113":-0.20900948345661163,"114":0.44396331906318665,"115":0.06806167960166931,"116":0.0592675656080246,"117":-0.24326448142528534,"118":-0.2850869297981262,"119":-0.17979009449481964,"120":0.4012331962585449,"121":0.30446645617485046,"122":0.008959542959928513,"123":0.04366453364491463,"124":0.03946555033326149,"125":-0.1503135859966278,"126":0.09943201392889023,"127":0.15989765524864197,"128":-0.04923989996314049,"129":-0.013583562336862087,"130":0.19131207466125488,"131":-0.10243166983127594,"132":-0.10278982669115067,"133":0.14817729592323303,"134":0.1641775220632553,"135":-0.02576928772032261,"136":0.13978451490402222,"137":-0.19581393897533417,"138":-0.013940329663455486,"139":0.05280934274196625}},"4":{"bias":-0.4363837242126465,"weights":{"0":0.1680627018213272,"1":-0.18755744397640228,"2":0.1811496913433075,"3":0.1437292993068695,"4":0.02693355828523636,"5":-0.00004857926251133904,"6":0.054780688136816025,"7":-0.19984221458435059,"8":0.01578754372894764,"9":0.132234126329422,"10":-0.16545747220516205,"11":0.17012393474578857,"12":0.02177349478006363,"13":0.03343386948108673,"14":0.013314674608409405,"15":0.20531797409057617,"16":0.2132387012243271,"17":0.07001522183418274,"18":0.19893115758895874,"19":-0.1361934393644333,"20":0.18227489292621613,"21":0.007334364578127861,"22":-0.16049377620220184,"23":0.07064246386289597,"24":0.07923441380262375,"25":-0.04159863665699959,"26":-0.14386619627475739,"27":0.11929766833782196,"28":0.06141212210059166,"29":0.47728368639945984,"30":-0.0962706059217453,"31":0.028189191594719887,"32":0.37056198716163635,"33":0.540329098701477,"34":0.40789660811424255,"35":0.26952484250068665,"36":0.21621719002723694,"37":0.32491543889045715,"38":0.46304386854171753,"39":-0.148489311337471,"40":-0.06203542277216911,"41":0.1830376535654068,"42":-0.2782844603061676,"43":-0.2591048777103424,"44":-0.6369704604148865,"45":0.35577306151390076,"46":-0.2701859474182129,"47":-0.15416544675827026,"48":-0.0981028750538826,"49":-0.007650714833289385,"50":-0.024206802248954773,"51":-0.40534478425979614,"52":0.357583224773407,"53":0.37853506207466125,"54":0.1736542284488678,"55":0.03600301221013069,"56":-0.544014036655426,"57":-0.327913761138916,"58":0.4668091833591461,"59":0.2872314453125,"60":-0.08300936967134476,"61":-0.04200251027941704,"62":-0.47112035751342773,"63":-0.07617037743330002,"64":0.26750004291534424,"65":0.19426152110099792,"66":-0.16417495906352997,"67":0.17840658128261566,"68":-0.08511051535606384,"69":0.0031213853508234024,"70":0.3653927147388458,"71":0.08980542421340942,"72":0.4158179759979248,"73":0.5932331681251526,"74":0.5313611030578613,"75":0.06280123442411423,"76":0.47508350014686584,"77":0.7472311854362488,"78":0.20345483720302582,"79":-0.4122786223888397,"80":-0.9151144623756409,"81":-0.11889517307281494,"82":0.3355770409107208,"83":0.3102424740791321,"84":0.129816472530365,"85":-0.2211780995130539,"86":0.2766343057155609,"87":0.05801369994878769,"88":-0.1980375349521637,"89":0.28818321228027344,"90":0.11855952441692352,"91":0.15084296464920044,"92":0.10636606812477112,"93":-0.05502879247069359,"94":-0.48179253935813904,"95":-0.40199995040893555,"96":-0.1834339201450348,"97":0.1467551440000534,"98":-0.28153979778289795,"99":-0.443289577960968,"100":-0.2706073820590973,"101":0.4694690406322479,"102":0.6118079423904419,"103":-0.6158639788627625,"104":0.05721740797162056,"105":0.423412024974823,"106":-0.1923605352640152,"107":-0.1327856034040451,"108":-0.35067033767700195,"109":-0.08467819541692734,"110":-0.4393042325973511,"111":0.24423517286777496,"112":0.046506498008966446,"113":-0.43116050958633423,"114":0.2840427756309509,"115":0.3950289487838745,"116":0.3574650287628174,"117":-0.30340462923049927,"118":0.12884950637817383,"119":0.3471066653728485,"120":0.21605482697486877,"121":0.20254842936992645,"122":-0.40464192628860474,"123":-0.04884962737560272,"124":0.10187401622533798,"125":0.09249822050333023,"126":0.13932691514492035,"127":-0.12099461257457733,"128":0.1208605170249939,"129":0.02520943619310856,"130":0.12063965946435928,"131":0.0854984000325203,"132":-0.06576845794916153,"133":0.03556165471673012,"134":-0.13470348715782166,"135":-0.016753895208239555,"136":-0.06949187815189362,"137":0.034903157502412796,"138":-0.14606113731861115,"139":-0.07331892102956772}},"5":{"bias":-0.697376549243927,"weights":{"0":0.1183849424123764,"1":0.11667066067457199,"2":0.029478251934051514,"3":0.09114961326122284,"4":0.14674198627471924,"5":-0.1567334681749344,"6":0.036554381251335144,"7":-0.1732960045337677,"8":0.15192249417304993,"9":0.07793967425823212,"10":0.049490395933389664,"11":0.15993914008140564,"12":-0.02049373835325241,"13":0.19846366345882416,"14":-0.13273990154266357,"15":0.16100828349590302,"16":-0.10045938193798065,"17":-0.14501334726810455,"18":0.027977732941508293,"19":0.19683705270290375,"20":0.10091571509838104,"21":-0.2140352576971054,"22":0.11488806456327438,"23":0.18304888904094696,"24":0.0161733441054821,"25":-0.14582335948944092,"26":-0.16940553486347198,"27":0.07667751610279083,"28":-0.051632367074489594,"29":0.30256447196006775,"30":0.2408752143383026,"31":-0.35226306319236755,"32":-0.7416260242462158,"33":-0.17411033809185028,"34":-0.13933855295181274,"35":-0.2067212015390396,"36":-0.06494178622961044,"37":-0.16214892268180847,"38":0.009774801321327686,"39":0.055182475596666336,"40":-0.2985382378101349,"41":-0.07089240849018097,"42":0.2654687464237213,"43":0.4795174300670624,"44":-0.2763720452785492,"45":-0.19214382767677307,"46":0.06847679615020752,"47":0.3646778464317322,"48":0.45455464720726013,"49":-0.052540864795446396,"50":0.3690437972545624,"51":0.019243590533733368,"52":0.1513836830854416,"53":0.30861416459083557,"54":-0.010234448127448559,"55":-0.39178991317749023,"56":0.9764927625656128,"57":0.9354307055473328,"58":-0.15839318931102753,"59":0.5582759976387024,"60":0.3284889757633209,"61":0.023901985958218575,"62":-0.06252042204141617,"63":-0.39103958010673523,"64":-0.21740517020225525,"65":0.18591728806495667,"66":0.1844712197780609,"67":0.6513481736183167,"68":-0.017650460824370384,"69":-0.4548356235027313,"70":-0.44346535205841064,"71":0.36545324325561523,"72":0.30487164855003357,"73":0.29034537076950073,"74":0.024591946974396706,"75":0.9166968464851379,"76":0.30697551369667053,"77":-0.3676006495952606,"78":-0.07294344902038574,"79":0.024670010432600975,"80":-0.2128709852695465,"81":-0.24557602405548096,"82":-0.5244380831718445,"83":-0.37252941727638245,"84":-0.08170897513628006,"85":0.11761785298585892,"86":-0.35463589429855347,"87":0.3557571768760681,"88":0.2795008718967438,"89":0.34944525361061096,"90":0.16093240678310394,"91":-0.47934889793395996,"92":-0.13128891587257385,"93":-0.24298112094402313,"94":0.22512564063072205,"95":0.0812816247344017,"96":0.11079798638820648,"97":-0.2669949531555176,"98":0.020393315702676773,"99":-0.45349377393722534,"100":-0.20964166522026062,"101":-0.20319247245788574,"102":0.007816901430487633,"103":0.15680313110351562,"104":0.2174111008644104,"105":-0.5364681482315063,"106":-0.2443217933177948,"107":0.1482629030942917,"108":0.45310115814208984,"109":0.4771108627319336,"110":0.5127252340316772,"111":0.2854596674442291,"112":0.13825997710227966,"113":-0.0065077017061412334,"114":0.1306622475385666,"115":0.2594568729400635,"116":0.08249744027853012,"117":0.37356969714164734,"118":0.4154658913612366,"119":0.2658166289329529,"120":0.34512266516685486,"121":0.049474816769361496,"122":0.13919714093208313,"123":-0.1117396354675293,"124":-0.037743836641311646,"125":0.11888420581817627,"126":0.060840900987386703,"127":0.14696206152439117,"128":-0.10918693989515305,"129":0.16731269657611847,"130":0.036740630865097046,"131":0.1502479910850525,"132":-0.053087715059518814,"133":0.07351892441511154,"134":-0.17211002111434937,"135":0.08398478478193283,"136":-0.23100830614566803,"137":-0.158874049782753,"138":0.013333135284483433,"139":-0.09544796496629715}},"6":{"bias":-0.4299468994140625,"weights":{"0":0.017500344663858414,"1":-0.05952516943216324,"2":-0.09910682588815689,"3":-0.09743592143058777,"4":0.08298920840024948,"5":0.12151399254798889,"6":-0.03929174691438675,"7":-0.1985103338956833,"8":0.11734151095151901,"9":-0.16821324825286865,"10":-0.07101378589868546,"11":-0.02092982828617096,"12":-0.06509481370449066,"13":0.13771869242191315,"14":0.0022369162179529667,"15":-0.24649345874786377,"16":-0.2603498101234436,"17":-0.0225115604698658,"18":0.22121889889240265,"19":0.19271090626716614,"20":0.03281668946146965,"21":0.17704668641090393,"22":-0.16871051490306854,"23":0.10724594444036484,"24":0.17161895334720612,"25":-0.10124993324279785,"26":-0.16686031222343445,"27":0.14257121086120605,"28":-0.0970243439078331,"29":-0.7144818902015686,"30":-0.6406592130661011,"31":-0.13639773428440094,"32":-0.19407305121421814,"33":0.3887060284614563,"34":0.15578226745128632,"35":0.17650523781776428,"36":-0.07107977569103241,"37":-0.03193996101617813,"38":-0.5726284384727478,"39":-0.14310352504253387,"40":-0.36795055866241455,"41":-0.2325981855392456,"42":-0.0011996417306363583,"43":0.06798665225505829,"44":-0.37683922052383423,"45":-0.8750318884849548,"46":0.04502706974744797,"47":0.38387858867645264,"48":-0.10082751512527466,"49":0.4600883424282074,"50":0.36400702595710754,"51":0.26915454864501953,"52":0.10192139446735382,"53":-0.2910577654838562,"54":-0.3246912956237793,"55":-0.04101518169045448,"56":-0.20373116433620453,"57":0.201247900724411,"58":-0.21192936599254608,"59":-0.522050142288208,"60":-0.3662269711494446,"61":-0.31869834661483765,"62":-0.2674095332622528,"63":0.09321501106023788,"64":0.03783689811825752,"65":0.41892796754837036,"66":0.6921571493148804,"67":-0.40501973032951355,"68":-0.38093188405036926,"69":0.06971035152673721,"70":-0.36472946405410767,"71":-0.05267847701907158,"72":0.47076600790023804,"73":0.07432416081428528,"74":-0.10688798129558563,"75":0.8868662118911743,"76":0.14797061681747437,"77":-0.4548485577106476,"78":-0.18612246215343475,"79":-0.12080585211515427,"80":0.19588053226470947,"81":-0.13714081048965454,"82":0.1413724571466446,"83":0.5489081144332886,"84":-0.14221607148647308,"85":0.22626087069511414,"86":-0.11373655498027802,"87":0.2534868121147156,"88":0.19850453734397888,"89":0.5581234097480774,"90":-0.11816258728504181,"91":-0.5673303008079529,"92":-0.3622153103351593,"93":-0.016137346625328064,"94":0.13174574077129364,"95":0.01285933330655098,"96":-0.12121646106243134,"97":0.05433432385325432,"98":0.1506989300251007,"99":0.7335795164108276,"100":-0.0675969123840332,"101":0.2743659019470215,"102":0.6160696148872375,"103":0.43147701025009155,"104":0.21838805079460144,"105":-0.3479546308517456,"106":-0.20829357206821442,"107":0.19562119245529175,"108":0.39186230301856995,"109":0.4991075396537781,"110":0.2268121838569641,"111":0.016574816778302193,"112":0.1371198445558548,"113":-0.4354560375213623,"114":-0.17972849309444427,"115":-0.34063267707824707,"116":-0.5632560849189758,"117":-0.026258813217282295,"118":-0.3002381920814514,"119":-0.2360653430223465,"120":0.025992505252361298,"121":0.12158678472042084,"122":-0.7138279676437378,"123":0.1311928629875183,"124":-0.08994930982589722,"125":0.10509075969457626,"126":0.017796890810132027,"127":-0.050214044749736786,"128":-0.1848297119140625,"129":-0.012171654962003231,"130":0.07779010385274887,"131":-0.07855483889579773,"132":-0.19944386184215546,"133":0.1488795131444931,"134":0.061745576560497284,"135":-0.10247140377759933,"136":-0.017027389258146286,"137":-0.022442199289798737,"138":0.009197022765874863,"139":-0.038386646658182144}},"7":{"bias":-1.0946532487869263,"weights":{"0":-0.18208293616771698,"1":0.15639732778072357,"2":0.002412383211776614,"3":0.18253983557224274,"4":0.11672843247652054,"5":-0.1280200481414795,"6":-0.0458192341029644,"7":-0.1541098654270172,"8":-0.07442367076873779,"9":0.04729900881648064,"10":0.03620060905814171,"11":-0.12087465077638626,"12":0.14239230751991272,"13":-0.10718376934528351,"14":-0.010640069842338562,"15":-0.04870036244392395,"16":0.27425506711006165,"17":-0.035645462572574615,"18":-0.040222447365522385,"19":-0.15405867993831635,"20":-0.17736011743545532,"21":0.23608048260211945,"22":0.17460216581821442,"23":-0.011017345823347569,"24":-0.11762941628694534,"25":-0.1922435164451599,"26":0.18089184165000916,"27":0.158086359500885,"28":0.24298186600208282,"29":0.4278782606124878,"30":0.4133231043815613,"31":0.21530850231647491,"32":-0.1633998602628708,"33":-0.3298049569129944,"34":-0.42223745584487915,"35":0.0026600805576890707,"36":0.009153259918093681,"37":0.18909300863742828,"38":0.4172349274158478,"39":0.1234029084444046,"40":0.24795420467853546,"41":0.3186796307563782,"42":0.0010746659245342016,"43":0.20813991129398346,"44":0.11435908824205399,"45":-0.6479910016059875,"46":-0.24678879976272583,"47":-0.0811304971575737,"48":0.11730431020259857,"49":0.03277754411101341,"50":0.07697731256484985,"51":0.08152192831039429,"52":-0.1962987780570984,"53":-0.5388004779815674,"54":0.4466739892959595,"55":0.2753756642341614,"56":-0.001514266710728407,"57":0.30253198742866516,"58":0.13465972244739532,"59":-0.21053965389728546,"60":0.6441419720649719,"61":0.6368229389190674,"62":0.2865351736545563,"63":0.23575490713119507,"64":0.10062382370233536,"65":0.07125653326511383,"66":0.44182494282722473,"67":-0.13340719044208527,"68":0.37677741050720215,"69":0.496442586183548,"70":-0.3680526912212372,"71":-0.1211528331041336,"72":0.3108307719230652,"73":-0.22116504609584808,"74":0.2535502314567566,"75":0.749070405960083,"76":-0.16915276646614075,"77":0.028662201017141342,"78":0.09114965051412582,"79":0.15610836446285248,"80":0.4618709981441498,"81":0.32966670393943787,"82":-0.08722899109125137,"83":0.28145676851272583,"84":0.41398176550865173,"85":0.40442588925361633,"86":0.30522459745407104,"87":0.0611238107085228,"88":0.35112056136131287,"89":0.6870356202125549,"90":0.44494009017944336,"91":-0.06693028658628464,"92":0.27108073234558105,"93":-0.11510123312473297,"94":-0.43739092350006104,"95":0.006562208756804466,"96":0.18514421582221985,"97":0.4307945966720581,"98":0.4338017702102661,"99":0.4380941092967987,"100":0.4045972526073456,"101":0.5630479454994202,"102":0.1416424810886383,"103":0.46122288703918457,"104":0.23284967243671417,"105":-0.04631294682621956,"106":0.05574871972203255,"107":0.32120805978775024,"108":0.04851576313376427,"109":0.3012532591819763,"110":0.21813468635082245,"111":-0.17319342494010925,"112":-0.15933798253536224,"113":0.42502331733703613,"114":0.05505981296300888,"115":0.1549617350101471,"116":0.22817812860012054,"117":0.02415703609585762,"118":0.13615703582763672,"119":-0.042102523148059845,"120":0.0657612755894661,"121":-0.2516929805278778,"122":-0.19288496673107147,"123":-0.03238597884774208,"124":0.012690498493611813,"125":0.06922362744808197,"126":0.07480566948652267,"127":-0.13961613178253174,"128":0.08558813482522964,"129":-0.10698205977678299,"130":0.19887860119342804,"131":0.13457097113132477,"132":-0.011267442256212234,"133":0.18121026456356049,"134":0.06401263177394867,"135":0.0850803330540657,"136":0.0021503239404410124,"137":-0.1927192211151123,"138":-0.18928483128547668,"139":-0.12152252346277237}},"8":{"bias":0.641611635684967,"weights":{"0":0.042210742831230164,"1":-0.2547505795955658,"2":-0.05639106407761574,"3":-0.08586624264717102,"4":0.18707558512687683,"5":-0.01260150596499443,"6":0.17348706722259521,"7":0.04728297144174576,"8":-0.17066577076911926,"9":-0.017494918778538704,"10":0.07284490019083023,"11":0.11610501259565353,"12":-0.16461458802223206,"13":-0.08840551227331161,"14":0.04920045658946037,"15":0.03881055861711502,"16":-0.2759564220905304,"17":0.2935281991958618,"18":-0.08583834767341614,"19":0.036452800035476685,"20":0.12577326595783234,"21":0.12734569609165192,"22":0.15892693400382996,"23":-0.08299802243709564,"24":-0.09369499236345291,"25":-0.032738346606492996,"26":0.1527707874774933,"27":0.2618298828601837,"28":-0.18460027873516083,"29":-0.4239289164543152,"30":-0.25045186281204224,"31":0.23767855763435364,"32":0.4051157534122467,"33":-0.09723446518182755,"34":-0.228506937623024,"35":-0.07666095346212387,"36":-0.1924179345369339,"37":0.10908578336238861,"38":0.2134840190410614,"39":-0.06270218640565872,"40":-0.1292717456817627,"41":0.28367310762405396,"42":-0.26196515560150146,"43":-0.4464060664176941,"44":0.492036908864975,"45":-0.08297601342201233,"46":-0.4927712082862854,"47":-0.4136071801185608,"48":0.31690073013305664,"49":-0.2359117865562439,"50":-0.23269246518611908,"51":0.31899386644363403,"52":0.20505273342132568,"53":-0.293605774641037,"54":-0.16937053203582764,"55":0.4339839220046997,"56":-0.36230218410491943,"57":-0.368415504693985,"58":-0.28040722012519836,"59":0.04487817361950874,"60":-1.2265530824661255,"61":-0.8386402130126953,"62":0.30204054713249207,"63":0.008098016493022442,"64":-0.23232822120189667,"65":0.016300447285175323,"66":0.5419992804527283,"67":-0.21450871229171753,"68":0.28594622015953064,"69":0.4080159068107605,"70":0.2897909879684448,"71":-0.1272704005241394,"72":-0.3852124512195587,"73":-0.37781792879104614,"74":-0.6495462656021118,"75":-0.594959020614624,"76":0.3137550354003906,"77":0.04035457223653793,"78":0.018269438296556473,"79":-0.0076206442900002,"80":0.31531304121017456,"81":0.4368797838687897,"82":0.39540183544158936,"83":0.49320539832115173,"84":0.008044084534049034,"85":-0.28488749265670776,"86":0.14568211138248444,"87":-0.31173568964004517,"88":-0.10251262784004211,"89":-0.35270607471466064,"90":0.3070394694805145,"91":0.3313214182853699,"92":-0.29706650972366333,"93":-0.1611962616443634,"94":0.5272786617279053,"95":-0.16761770844459534,"96":0.158562570810318,"97":0.1723392903804779,"98":-0.330303430557251,"99":-0.7298113107681274,"100":-0.27050837874412537,"101":-0.5154128670692444,"102":-0.4980231821537018,"103":-0.09005541354417801,"104":-0.11696865409612656,"105":0.051048945635557175,"106":0.2277262955904007,"107":0.1094764918088913,"108":0.1066855937242508,"109":-0.3226417303085327,"110":0.05678461119532585,"111":-0.020592419430613518,"112":0.09407059103250504,"113":0.028811007738113403,"114":-0.2734144628047943,"115":0.02613622508943081,"116":-0.09494852274656296,"117":0.11370223015546799,"118":0.1754564344882965,"119":-0.04668940231204033,"120":0.01012574415653944,"121":0.1766589730978012,"122":-0.05348656699061394,"123":-0.20676831901073456,"124":0.013799911364912987,"125":0.046985309571027756,"126":0.003084765747189522,"127":0.12881802022457123,"128":-0.17347824573516846,"129":0.040482353419065475,"130":-0.10328803956508636,"131":-0.10456281155347824,"132":0.0707121267914772,"133":0.17535583674907684,"134":-0.05879852548241615,"135":0.054441776126623154,"136":-0.13858433067798615,"137":0.17887519299983978,"138":-0.03405317664146423,"139":-0.17133523523807526}},"9":{"bias":-0.40457838773727417,"weights":{"0":0.08937540650367737,"1":-0.15075801312923431,"2":0.0275790486484766,"3":0.17726680636405945,"4":-0.11716222763061523,"5":0.17529934644699097,"6":-0.13770067691802979,"7":-0.11310376971960068,"8":-0.04005379229784012,"9":0.18796080350875854,"10":0.0002785230171866715,"11":0.1360359489917755,"12":-0.10570164024829865,"13":-0.1102844849228859,"14":-0.07336492091417313,"15":-0.0850292444229126,"16":-0.05584670230746269,"17":-0.20739015936851501,"18":0.10247129201889038,"19":-0.04023166373372078,"20":0.16163012385368347,"21":-0.278586208820343,"22":-0.037362635135650635,"23":0.09961499273777008,"24":-0.03810157999396324,"25":-0.008889165706932545,"26":0.0798664391040802,"27":0.1259433925151825,"28":0.5414729714393616,"29":0.1638263761997223,"30":0.5122824907302856,"31":0.49967625737190247,"32":0.37466806173324585,"33":0.5491123795509338,"34":0.08522478491067886,"35":-0.5492949485778809,"36":-0.04362653195858002,"37":0.44330164790153503,"38":0.4913505017757416,"39":-0.041387636214494705,"40":-0.04088914021849632,"41":0.2200368195772171,"42":0.1249864473938942,"43":0.09855081886053085,"44":-0.23704181611537933,"45":-0.46848398447036743,"46":-0.42443203926086426,"47":0.05112304911017418,"48":-0.0843421220779419,"49":-0.07013772428035736,"50":-0.5599436163902283,"51":-0.397190123796463,"52":0.10786546766757965,"53":0.2031354159116745,"54":0.6385267972946167,"55":0.272917777299881,"56":0.4024488031864166,"57":0.3512401878833771,"58":-0.12925580143928528,"59":0.1388181895017624,"60":0.04838859662413597,"61":-0.06882305443286896,"62":-0.3093685209751129,"63":-0.1822529286146164,"64":0.21824215352535248,"65":0.044829074293375015,"66":0.44900423288345337,"67":0.5882607698440552,"68":0.48778393864631653,"69":0.4117765724658966,"70":0.6354038715362549,"71":0.8629117608070374,"72":0.14982028305530548,"73":0.36530065536499023,"74":0.2418324053287506,"75":-1.3993983268737793,"76":0.12427683919668198,"77":0.41162005066871643,"78":0.35533395409584045,"79":0.16886968910694122,"80":-0.10850288718938828,"81":0.30819040536880493,"82":0.1911175549030304,"83":0.34269580245018005,"84":0.3755749762058258,"85":0.318866491317749,"86":0.0036139858420938253,"87":0.07527020573616028,"88":-0.45733320713043213,"89":-0.4393169581890106,"90":0.6574786901473999,"91":0.6149473786354065,"92":0.0208726916462183,"93":-0.11829246580600739,"94":-0.5046292543411255,"95":-0.19629836082458496,"96":-0.19178996980190277,"97":0.28450828790664673,"98":0.2134852260351181,"99":-0.1453281044960022,"100":-0.33070775866508484,"101":-0.3674180507659912,"102":-0.41010862588882446,"103":-0.2525557279586792,"104":-0.01870313100516796,"105":-0.5150548815727234,"106":0.25857651233673096,"107":0.7598361372947693,"108":0.03177957236766815,"109":-0.3973729908466339,"110":-0.5659218430519104,"111":0.046843089163303375,"112":-0.08376959711313248,"113":-0.42518553137779236,"114":-0.3109317421913147,"115":0.033024758100509644,"116":-0.17678938806056976,"117":-0.06336528062820435,"118":0.12334446609020233,"119":-0.13975614309310913,"120":0.029906200245022774,"121":-0.14295873045921326,"122":-0.1935211420059204,"123":-0.02403113804757595,"124":-0.27481183409690857,"125":0.1771545708179474,"126":-0.033437736332416534,"127":-0.01683315634727478,"128":-0.0732559859752655,"129":-0.13078249990940094,"130":0.07269560545682907,"131":0.03907370567321777,"132":0.1509244441986084,"133":0.16576269268989563,"134":0.05455854907631874,"135":0.07107562571763992,"136":0.022966673597693443,"137":0.11734415590763092,"138":-0.19590817391872406,"139":0.1693393886089325}},"10":{"bias":0.07812263816595078,"weights":{"0":-0.17351564764976501,"1":-0.052758269011974335,"2":-0.16538076102733612,"3":0.11930041760206223,"4":0.05315757170319557,"5":0.1735379695892334,"6":-0.05489353835582733,"7":-0.0735694020986557,"8":0.15761275589466095,"9":-0.11064569652080536,"10":-0.13995900750160217,"11":-0.03129707649350166,"12":0.17075897753238678,"13":-0.05613260343670845,"14":0.11510961502790451,"15":0.07203112542629242,"16":0.19120799005031586,"17":0.04590658098459244,"18":0.11932839453220367,"19":0.18469546735286713,"20":-0.1613309234380722,"21":-0.1657186895608902,"22":-0.17015035450458527,"23":-0.1760912388563156,"24":0.13002413511276245,"25":0.18665412068367004,"26":0.08646127581596375,"27":0.02510244771838188,"28":-0.023981908336281776,"29":0.6778053641319275,"30":0.37257635593414307,"31":-0.15418316423892975,"32":-0.025018049404025078,"33":0.38069552183151245,"34":-0.3746822476387024,"35":-0.3177768588066101,"36":-0.5464094877243042,"37":-0.07881251722574234,"38":0.12048458307981491,"39":0.09400515258312225,"40":0.33845973014831543,"41":-0.5141340494155884,"42":0.15526778995990753,"43":-0.18208549916744232,"44":0.27710816264152527,"45":-0.602632999420166,"46":-0.661098301410675,"47":-0.2240046262741089,"48":-0.8107144832611084,"49":0.15265154838562012,"50":-0.05106012523174286,"51":-0.149677112698555,"52":-0.19563362002372742,"53":0.2583048641681671,"54":0.041101936250925064,"55":-0.49402210116386414,"56":0.47945043444633484,"57":-0.31470635533332825,"58":-0.05739425867795944,"59":-0.24094244837760925,"60":0.038774605840444565,"61":-0.10062431544065475,"62":-0.3500140905380249,"63":0.31027519702911377,"64":0.3057504892349243,"65":-0.35677725076675415,"66":-0.6301100850105286,"67":-0.325471967458725,"68":-0.1799994707107544,"69":-0.19039177894592285,"70":0.17242465913295746,"71":0.6553785800933838,"72":0.7399840354919434,"73":0.3319689929485321,"74":0.03585266321897507,"75":0.5343295931816101,"76":0.07384493201971054,"77":-0.1635219156742096,"78":-0.4266526401042938,"79":-0.19801130890846252,"80":-0.22024483978748322,"81":-0.14343543350696564,"82":-0.040323562920093536,"83":0.24368759989738464,"84":0.016334746032953262,"85":-0.3692643940448761,"86":0.20072630047798157,"87":0.027876539155840874,"88":-0.35087236762046814,"89":-0.194705531001091,"90":0.042208001017570496,"91":0.4537019729614258,"92":-0.24884453415870667,"93":-0.5535958409309387,"94":-0.06311345845460892,"95":0.24806486070156097,"96":-0.3720983564853668,"97":-0.23113666474819183,"98":-0.3742273151874542,"99":0.32465091347694397,"100":0.19373750686645508,"101":-0.46620267629623413,"102":-0.4294928312301636,"103":-0.10568996518850327,"104":0.38644397258758545,"105":0.5225901007652283,"106":-0.013584541156888008,"107":0.33833226561546326,"108":0.6158472299575806,"109":0.23717504739761353,"110":-0.4411342144012451,"111":-0.20045164227485657,"112":0.02631850726902485,"113":0.46409156918525696,"114":0.3882266879081726,"115":-0.03456827253103256,"116":-0.28620633482933044,"117":-0.4605562686920166,"118":-0.10643435269594193,"119":0.21006378531455994,"120":0.7946314811706543,"121":0.7579137086868286,"122":0.36676812171936035,"123":-0.07926108688116074,"124":0.037884730845689774,"125":-0.23191501200199127,"126":-0.10829823464155197,"127":0.13826368749141693,"128":0.006376384291797876,"129":0.1927282214164734,"130":0.035100024193525314,"131":-0.1816878616809845,"132":0.01628050021827221,"133":0.17326249182224274,"134":0.014585309661924839,"135":0.08333690464496613,"136":0.16181690990924835,"137":0.1896483600139618,"138":0.08164863288402557,"139":0.13212504982948303}},"11":{"bias":-0.4522175192832947,"weights":{"0":-0.048198163509368896,"1":0.1278456598520279,"2":-0.000022220297978492454,"3":-0.08374398946762085,"4":0.19054804742336273,"5":0.1535201519727707,"6":-0.09613256901502609,"7":-0.12461439520120621,"8":-0.16093970835208893,"9":0.0004921178333461285,"10":0.07356727868318558,"11":0.1766895204782486,"12":-0.06694088131189346,"13":0.11218596994876862,"14":0.00740054389461875,"15":-0.03772534057497978,"16":0.2006303369998932,"17":-0.02144208550453186,"18":0.14668411016464233,"19":0.00788930058479309,"20":-0.014337459579110146,"21":-0.02685915119946003,"22":-0.014512699097394943,"23":-0.062456563115119934,"24":0.11536481231451035,"25":0.19714483618736267,"26":0.04748900234699249,"27":-0.21368935704231262,"28":0.9255015850067139,"29":0.8676539063453674,"30":0.569561779499054,"31":-0.5920314788818359,"32":-0.2579590976238251,"33":-0.4099139869213104,"34":-0.1928921490907669,"35":-0.028461523354053497,"36":0.05146805942058563,"37":0.16149333119392395,"38":-0.3453241288661957,"39":0.10315313190221786,"40":-0.19407041370868683,"41":0.24224388599395752,"42":0.3302202522754669,"43":0.01825745962560177,"44":-0.22588267922401428,"45":0.13735327124595642,"46":-0.09608195722103119,"47":-0.428690642118454,"48":0.5021196007728577,"49":-0.042060304433107376,"50":0.10581209510564804,"51":0.2045125812292099,"52":-0.2712329030036926,"53":0.4003424048423767,"54":0.3467625379562378,"55":-0.06177431344985962,"56":0.9606163501739502,"57":0.4591246247291565,"58":0.3431703448295593,"59":0.5473632216453552,"60":-0.24553938210010529,"61":-0.06204308196902275,"62":0.16905277967453003,"63":-0.1817970722913742,"64":-0.39857521653175354,"65":-0.39080408215522766,"66":0.0021320211235433817,"67":0.7613996267318726,"68":0.31514739990234375,"69":0.08503706008195877,"70":0.15292219817638397,"71":0.2922289967536926,"72":-0.3585264980792999,"73":-0.3656717836856842,"74":0.08669590204954147,"75":1.459989070892334,"76":-0.13050487637519836,"77":-0.4019485414028168,"78":-0.3508839011192322,"79":-0.13546299934387207,"80":0.08687589317560196,"81":0.2639366388320923,"82":-0.20973604917526245,"83":-0.3233949542045593,"84":-0.05570715665817261,"85":0.32933348417282104,"86":0.03678271919488907,"87":0.148276686668396,"88":0.3556985557079315,"89":0.30873849987983704,"90":0.06947608292102814,"91":-0.16757164895534515,"92":0.04520752280950546,"93":0.5213844776153564,"94":-0.39971408247947693,"95":-0.2599663734436035,"96":0.015674898400902748,"97":-0.1469942331314087,"98":0.4624785780906677,"99":0.051938824355602264,"100":-0.043912723660469055,"101":0.26508861780166626,"102":0.17700286209583282,"103":0.6404440999031067,"104":0.5394186973571777,"105":0.587061882019043,"106":0.4959554970264435,"107":-0.14284318685531616,"108":-0.9291751384735107,"109":-0.25601211190223694,"110":-0.11733967810869217,"111":-0.09579740464687347,"112":-0.18409577012062073,"113":0.583700954914093,"114":0.03009730763733387,"115":-0.422592431306839,"116":-0.22546540200710297,"117":0.18189597129821777,"118":0.1410234272480011,"119":0.2422318160533905,"120":0.09481009840965271,"121":-0.015236964449286461,"122":-0.4626218378543854,"123":-0.1745133101940155,"124":-0.13224324584007263,"125":0.1238618716597557,"126":0.16249865293502808,"127":-0.0004357889120001346,"128":-0.06289856880903244,"129":-0.03379271179437637,"130":0.029566027224063873,"131":-0.007251467555761337,"132":0.19389480352401733,"133":-0.1379193663597107,"134":0.025506695732474327,"135":0.12236862629652023,"136":0.2125123292207718,"137":-0.18656867742538452,"138":-0.036086875945329666,"139":-0.04013611003756523}},"12":{"bias":0.5034544467926025,"weights":{"0":-0.020229317247867584,"1":-0.06681927293539047,"2":0.15899942815303802,"3":-0.16709211468696594,"4":-0.01711021549999714,"5":-0.09987843781709671,"6":-0.13376152515411377,"7":0.06868423521518707,"8":0.15876466035842896,"9":-0.06233295798301697,"10":0.1826905906200409,"11":0.009535142220556736,"12":-0.09557407349348068,"13":-0.04072409123182297,"14":0.1838226020336151,"15":0.027537453919649124,"16":0.07315512001514435,"17":-0.01863452047109604,"18":-0.16118037700653076,"19":0.08665917068719864,"20":0.013926454819738865,"21":0.10114233940839767,"22":-0.07302600890398026,"23":0.18539613485336304,"24":0.18214157223701477,"25":-0.07516519725322723,"26":0.13128988444805145,"27":0.2557045817375183,"28":-0.41544413566589355,"29":-0.453904390335083,"30":-0.4468449354171753,"31":0.28248491883277893,"32":-0.06421331316232681,"33":0.34728071093559265,"34":0.008234953507781029,"35":0.057714372873306274,"36":-0.0494995079934597,"37":0.3416737914085388,"38":0.07574333250522614,"39":0.3639967739582062,"40":0.11818710714578629,"41":0.5038194060325623,"42":0.23365667462348938,"43":0.3728458285331726,"44":-0.36077791452407837,"45":-0.30638355016708374,"46":-0.25751668214797974,"47":0.14258748292922974,"48":-0.33503440022468567,"49":-0.33571022748947144,"50":-0.24894878268241882,"51":-0.028094712644815445,"52":-0.20574188232421875,"53":0.24030530452728271,"54":0.575126588344574,"55":0.3653266429901123,"56":0.014214684255421162,"57":0.8091428279876709,"58":0.24409490823745728,"59":0.5318863391876221,"60":0.3447147309780121,"61":0.2634439468383789,"62":0.4997255802154541,"63":0.24765120446681976,"64":0.29906487464904785,"65":0.45237112045288086,"66":0.03956305980682373,"67":0.606711745262146,"68":0.5589857697486877,"69":0.6088559031486511,"70":0.04031512886285782,"71":0.04711509868502617,"72":-0.3468860983848572,"73":-0.1218843162059784,"74":-0.2149723619222641,"75":-0.6190705895423889,"76":0.1751125305891037,"77":-0.2509545683860779,"78":-0.33280491828918457,"79":-0.5857155919075012,"80":-0.45256614685058594,"81":0.11543670296669006,"82":-0.0007992084138095379,"83":0.2641094923019409,"84":-0.038570355623960495,"85":0.06883873790502548,"86":-0.2651277482509613,"87":0.24703888595104218,"88":0.6456024050712585,"89":0.351568341255188,"90":0.27127307653427124,"91":-0.10623874515295029,"92":-0.03437856584787369,"93":-0.12639912962913513,"94":-0.3424680531024933,"95":0.22615747153759003,"96":0.15059486031532288,"97":0.3116987347602844,"98":-0.021893205121159554,"99":-0.011457124724984169,"100":-0.2556364834308624,"101":-0.13976867496967316,"102":-0.5852665901184082,"103":-0.05955854430794716,"104":-0.20193134248256683,"105":-0.20059780776500702,"106":-0.33942314982414246,"107":-0.09075476229190826,"108":-0.2816261053085327,"109":-0.07347112149000168,"110":-0.2305842489004135,"111":-0.19110219180583954,"112":-0.07015211880207062,"113":0.0013373031979426742,"114":-0.12473978847265244,"115":-0.2398688793182373,"116":-0.3920827805995941,"117":-0.003106331452727318,"118":-0.10601035505533218,"119":0.10231483727693558,"120":-0.2101207673549652,"121":-0.1563073694705963,"122":-0.06239797919988632,"123":-0.07139474153518677,"124":0.12715482711791992,"125":0.0351816862821579,"126":0.18189959228038788,"127":-0.12448291480541229,"128":-0.10773245990276337,"129":-0.017601415514945984,"130":-0.12822218239307404,"131":-0.1225409284234047,"132":0.0005688904784619808,"133":0.17248302698135376,"134":-0.0896010547876358,"135":-0.03745154291391373,"136":-0.13897636532783508,"137":0.04134243354201317,"138":-0.11659225821495056,"139":0.1638038009405136}},"13":{"bias":-0.7462537288665771,"weights":{"0":-0.019800769165158272,"1":0.09019985049962997,"2":-0.1323402225971222,"3":-0.11782325804233551,"4":-0.08002811670303345,"5":-0.029337437823414803,"6":-0.17301057279109955,"7":-0.08215053379535675,"8":0.11659510433673859,"9":-0.12509004771709442,"10":-0.13397811353206635,"11":-0.18071508407592773,"12":-0.08469125628471375,"13":0.08585546165704727,"14":0.049962107092142105,"15":0.11839064955711365,"16":0.021806294098496437,"17":0.2424352914094925,"18":0.16730999946594238,"19":-0.0440746434032917,"20":0.07244579493999481,"21":0.28506094217300415,"22":-0.14976921677589417,"23":0.14153988659381866,"24":0.12257800251245499,"25":0.15434129536151886,"26":0.09003475308418274,"27":0.19794465601444244,"28":0.11363515257835388,"29":0.4912005066871643,"30":0.22518686950206757,"31":-0.2475787252187729,"32":-0.28913071751594543,"33":-0.4935317635536194,"34":0.03092386946082115,"35":0.24394138157367706,"36":0.239679217338562,"37":0.17635001242160797,"38":-0.009329519234597683,"39":-0.36699217557907104,"40":-0.2993861138820648,"41":0.07793859392404556,"42":0.23070135712623596,"43":0.40463533997535706,"44":-0.15803417563438416,"45":-0.10794983059167862,"46":-0.2423502504825592,"47":0.003060921560972929,"48":-0.08092254400253296,"49":-0.0894879475235939,"50":-0.3680744469165802,"51":-0.5824868679046631,"52":-0.025702478364109993,"53":-0.07067045569419861,"54":0.007207460701465607,"55":-0.10200779885053635,"56":0.46202048659324646,"57":0.3702649772167206,"58":-0.05904383584856987,"59":-0.06498142331838608,"60":0.11700990051031113,"61":-0.11624205112457275,"62":-0.019736355170607567,"63":-0.29441142082214355,"64":-0.2407616376876831,"65":-0.029950084164738655,"66":0.7184920907020569,"67":0.23520945012569427,"68":0.1825980246067047,"69":0.03629070147871971,"70":0.14324532449245453,"71":-0.3103686273097992,"72":-0.050738196820020676,"73":0.08068057149648666,"74":0.05701522156596184,"75":-0.5597918629646301,"76":0.6615307927131653,"77":0.506805419921875,"78":0.43986567854881287,"79":0.6601168513298035,"80":0.2538298964500427,"81":-0.3159823715686798,"82":-0.03223080560564995,"83":-0.2789950668811798,"84":0.05330149084329605,"85":-0.23518680036067963,"86":0.12579946219921112,"87":-0.18585574626922607,"88":-0.14429447054862976,"89":0.03515438362956047,"90":0.4958852231502533,"91":-0.18462075293064117,"92":-0.08295395970344543,"93":-0.24649818241596222,"94":0.14586156606674194,"95":-0.33958595991134644,"96":-0.32403841614723206,"97":0.10661160945892334,"98":-0.12199337780475616,"99":-0.1935882717370987,"100":0.15887421369552612,"101":0.38261115550994873,"102":0.5868815779685974,"103":0.35187917947769165,"104":0.46179553866386414,"105":0.07624401152133942,"106":-0.3832796812057495,"107":0.14694681763648987,"108":0.4070173501968384,"109":-0.20317481458187103,"110":-0.27161070704460144,"111":0.40836066007614136,"112":0.19189174473285675,"113":0.2730087637901306,"114":0.2933371067047119,"115":0.49143075942993164,"116":0.368722140789032,"117":0.16705858707427979,"118":0.17820537090301514,"119":0.2885560095310211,"120":0.06054749712347984,"121":-0.07814397662878036,"122":-0.25218361616134644,"123":0.1471233367919922,"124":-0.12052247673273087,"125":0.04685020074248314,"126":-0.09976831078529358,"127":-0.03402081876993179,"128":-0.07777751237154007,"129":0.1570233255624771,"130":0.08164694905281067,"131":0.08771838247776031,"132":0.19396038353443146,"133":0.15376468002796173,"134":0.1681273728609085,"135":-0.06291528791189194,"136":-0.04383869841694832,"137":0.18272584676742554,"138":-0.1349238157272339,"139":0.021269021555781364}},"14":{"bias":0.42602577805519104,"weights":{"0":-0.1265864223241806,"1":-0.10880447179079056,"2":0.04886294901371002,"3":0.00031121374922804534,"4":-0.07870719581842422,"5":-0.11294292658567429,"6":0.04271489009261131,"7":-0.05646933615207672,"8":-0.0014992470387369394,"9":-0.05223594978451729,"10":-0.11657408624887466,"11":0.17607174813747406,"12":0.03880747780203819,"13":0.01089268084615469,"14":-0.0936504676938057,"15":0.03364943712949753,"16":0.048000577837228775,"17":-0.11305845528841019,"18":-0.17180992662906647,"19":-0.11245287209749222,"20":-0.04014291986823082,"21":0.02519560046494007,"22":0.10329589247703552,"23":0.08961614966392517,"24":-0.197224959731102,"25":0.03310997784137726,"26":-0.10171010345220566,"27":-0.24664004147052765,"28":0.014912109822034836,"29":0.12180009484291077,"30":-0.03922120854258537,"31":-0.7424135208129883,"32":-0.36976179480552673,"33":-0.25700467824935913,"34":-0.15360891819000244,"35":-0.45217713713645935,"36":-0.3689402639865875,"37":-0.08947914093732834,"38":-0.9901694655418396,"39":-0.104767806828022,"40":-0.0566626638174057,"41":-0.31831130385398865,"42":0.3459533452987671,"43":0.17989405989646912,"44":-0.11972460150718689,"45":0.17857280373573303,"46":0.4952673316001892,"47":-0.26438239216804504,"48":-0.08992642909288406,"49":0.042999643832445145,"50":-0.34440192580223083,"51":0.05058964714407921,"52":0.3226170241832733,"53":0.2708236277103424,"54":0.16525645554065704,"55":-0.1346440613269806,"56":0.3396938145160675,"57":0.2296699434518814,"58":-0.3298693597316742,"59":-0.11572874337434769,"60":-0.5782720446586609,"61":-0.7062199711799622,"62":0.22119757533073425,"63":-0.048190049827098846,"64":-0.039811696857213974,"65":0.49834391474723816,"66":0.6315354704856873,"67":-0.07956603914499283,"68":-0.03753628581762314,"69":0.06426336616277695,"70":-0.24305474758148193,"71":0.18919990956783295,"72":0.18573632836341858,"73":0.5773233771324158,"74":-0.2046252191066742,"75":-1.3406765460968018,"76":0.20375841856002808,"77":-0.2911383807659149,"78":-0.38762351870536804,"79":-0.42743030190467834,"80":-0.01957673951983452,"81":-0.1791871190071106,"82":-0.17021828889846802,"83":-0.08563577383756638,"84":-0.18135777115821838,"85":0.6345292329788208,"86":-0.04494742676615715,"87":0.6769101619720459,"88":0.18499231338500977,"89":-0.25076255202293396,"90":-0.24663418531417847,"91":0.0944972112774849,"92":-0.18817955255508423,"93":0.21370616555213928,"94":-0.007936056703329086,"95":-0.6008317470550537,"96":0.08512213081121445,"97":0.07121875137090683,"98":0.035900384187698364,"99":0.8619049191474915,"100":-0.11978529393672943,"101":-0.21436624228954315,"102":0.1543862372636795,"103":0.04542180895805359,"104":-0.02855401299893856,"105":-0.024322429671883583,"106":-0.12984228134155273,"107":0.4639234244823456,"108":-0.48202618956565857,"109":-0.5390878915786743,"110":-0.3097972869873047,"111":-0.5414612889289856,"112":-0.021830638870596886,"113":0.08027652651071548,"114":0.2402404248714447,"115":-0.1143861934542656,"116":-0.35605576634407043,"117":-0.11740531027317047,"118":0.20921126008033752,"119":0.3547654151916504,"120":0.06540475785732269,"121":-0.04130811616778374,"122":-0.4403591752052307,"123":0.061692479997873306,"124":-0.10426390171051025,"125":-0.22361735999584198,"126":0.04554157704114914,"127":0.027185233309864998,"128":0.17549017071723938,"129":0.10295441746711731,"130":-0.02978396974503994,"131":-0.023312319070100784,"132":0.008774681948125362,"133":0.07090095430612564,"134":0.09464524686336517,"135":-0.030420616269111633,"136":-0.2738407850265503,"137":-0.08450311422348022,"138":0.039541490375995636,"139":0.009096942842006683}},"15":{"bias":0.0727873295545578,"weights":{"0":-0.06250268965959549,"1":-0.1141740009188652,"2":-0.11686034500598907,"3":0.0006873297388665378,"4":0.12879115343093872,"5":-0.18244224786758423,"6":0.15841656923294067,"7":-0.0378497950732708,"8":-0.1861540675163269,"9":-0.18063871562480927,"10":-0.056437257677316666,"11":0.144759401679039,"12":0.10512310266494751,"13":-0.06338901072740555,"14":-0.08424469828605652,"15":-0.2825492322444916,"16":0.010595549829304218,"17":-0.02223872020840645,"18":-0.0007018877658993006,"19":0.0005830154987052083,"20":0.07259772717952728,"21":0.1361955851316452,"22":-0.19557008147239685,"23":-0.1813046783208847,"24":0.12249641865491867,"25":0.10116033256053925,"26":0.12247356027364731,"27":-0.025279346853494644,"28":0.29232412576675415,"29":0.5786870718002319,"30":0.2863019108772278,"31":-0.3667406737804413,"32":-0.33149853348731995,"33":-0.06118441000580788,"34":-0.2134871482849121,"35":-0.12188158929347992,"36":-0.08458557724952698,"37":0.19645655155181885,"38":0.2235952764749527,"39":-0.38994863629341125,"40":-0.3604632318019867,"41":-0.18607230484485626,"42":0.020887155085802078,"43":-0.21304255723953247,"44":0.4448813498020172,"45":0.036545898765325546,"46":-0.04587102308869362,"47":-0.6212167143821716,"48":-0.05358327180147171,"49":-0.12504716217517853,"50":-0.29676538705825806,"51":0.03501323610544205,"52":0.018960241228342056,"53":-0.4735995829105377,"54":-0.016724560409784317,"55":0.3071339428424835,"56":-0.5246623158454895,"57":0.319172739982605,"58":0.49963030219078064,"59":-0.08590864390134811,"60":-0.603943943977356,"61":-0.28473806381225586,"62":0.7663875222206116,"63":0.5402351021766663,"64":0.5500275492668152,"65":0.2941000759601593,"66":0.5955213904380798,"67":-0.2496989220380783,"68":0.24052013456821442,"69":0.31269362568855286,"70":-0.14803363382816315,"71":0.39677971601486206,"72":-0.17256666719913483,"73":-0.41272106766700745,"74":-0.6118829250335693,"75":-0.3696555495262146,"76":-0.3175305724143982,"77":-0.22830112278461456,"78":0.16504304111003876,"79":0.24629361927509308,"80":0.47317567467689514,"81":0.21120519936084747,"82":0.3421451449394226,"83":0.26047471165657043,"84":0.06130076199769974,"85":-0.5121945738792419,"86":0.022292332723736763,"87":-0.3178664445877075,"88":0.01141282171010971,"89":0.2460879385471344,"90":0.27984973788261414,"91":-0.3560875654220581,"92":0.06793659925460815,"93":0.5648303627967834,"94":0.880650520324707,"95":0.3511113226413727,"96":0.12757866084575653,"97":0.2717602252960205,"98":0.2782122790813446,"99":-0.8149725794792175,"100":0.2366572767496109,"101":0.13831055164337158,"102":-0.1865605115890503,"103":0.48040488362312317,"104":-0.19840407371520996,"105":-0.664773166179657,"106":-0.2890026569366455,"107":-0.009944201447069645,"108":0.024576053023338318,"109":0.27748823165893555,"110":0.2286159247159958,"111":-0.4541131258010864,"112":0.15669916570186615,"113":-0.31537243723869324,"114":-0.48408928513526917,"115":-0.016268962994217873,"116":0.22688406705856323,"117":0.412861168384552,"118":-0.4497177302837372,"119":-0.37767294049263,"120":-0.6538634300231934,"121":-0.7181952595710754,"122":0.20665892958641052,"123":-0.0647808238863945,"124":0.08729678392410278,"125":-0.08115723729133606,"126":0.004990308079868555,"127":-0.10060149431228638,"128":-0.11142837256193161,"129":0.14775528013706207,"130":-0.12125665694475174,"131":-0.037062592804431915,"132":-0.049026597291231155,"133":-0.17044036090373993,"134":0.10018201917409897,"135":-0.1831330507993698,"136":-0.5194565057754517,"137":0.15669506788253784,"138":-0.19934028387069702,"139":-0.17142406105995178}},"16":{"bias":-0.16253459453582764,"weights":{"0":-0.14967484772205353,"1":-0.25580543279647827,"2":-0.06972786039113998,"3":0.048023100942373276,"4":0.12250179052352905,"5":0.11418066173791885,"6":-0.027017096057534218,"7":0.0033563682809472084,"8":0.1060197502374649,"9":0.1600002497434616,"10":-0.0032015140168368816,"11":0.18156880140304565,"12":-0.09392470121383667,"13":0.11680648475885391,"14":0.03184692934155464,"15":-0.09906640648841858,"16":-0.3535604476928711,"17":0.08784906566143036,"18":-0.02184714749455452,"19":0.005949569866061211,"20":0.1600818634033203,"21":0.146124929189682,"22":-0.12889842689037323,"23":0.1821836680173874,"24":0.15779855847358704,"25":0.06506238132715225,"26":0.0479217953979969,"27":-0.060110319405794144,"28":-0.15869764983654022,"29":-0.7065135836601257,"30":-0.1892222762107849,"31":-0.11599981784820557,"32":0.019199863076210022,"33":0.16313536465168,"34":0.4089512825012207,"35":0.3264138698577881,"36":0.15570391714572906,"37":-0.017636969685554504,"38":0.1028556078672409,"39":-0.1339297592639923,"40":0.19152846932411194,"41":0.2302824854850769,"42":-0.18410861492156982,"43":0.4948780834674835,"44":-0.22368861734867096,"45":-0.015911448746919632,"46":-0.03913649916648865,"47":-0.06770233809947968,"48":0.33355897665023804,"49":0.33585354685783386,"50":-0.06269662082195282,"51":0.15269988775253296,"52":0.13241621851921082,"53":0.12068689614534378,"54":-0.07413333654403687,"55":0.30599305033683777,"56":-0.6140589118003845,"57":0.15179671347141266,"58":-0.13373777270317078,"59":0.394391804933548,"60":-0.0037778487894684076,"61":-0.30749422311782837,"62":0.5992363095283508,"63":0.7292744517326355,"64":0.008847820572555065,"65":0.13313359022140503,"66":-0.1288662850856781,"67":0.23706449568271637,"68":-0.10592200607061386,"69":0.2862676978111267,"70":-0.36537349224090576,"71":-0.16383934020996094,"72":0.2787248492240906,"73":0.3273269534111023,"74":-0.3062361478805542,"75":-0.7012901306152344,"76":0.14227589964866638,"77":0.46611079573631287,"78":-0.07400782406330109,"79":-0.5096105933189392,"80":-0.29888585209846497,"81":-0.14802879095077515,"82":-0.15865719318389893,"83":-0.028428299352526665,"84":-0.04252472519874573,"85":0.643518328666687,"86":-0.08746570348739624,"87":0.3787376284599304,"88":0.14301800727844238,"89":-0.4436379075050354,"90":-0.06365837901830673,"91":0.4311881363391876,"92":-0.2867330014705658,"93":-0.2948915660381317,"94":0.4285963773727417,"95":0.04743729159235954,"96":0.27289748191833496,"97":-0.02224705182015896,"98":0.09947584569454193,"99":0.3111175298690796,"100":0.3425712287425995,"101":0.33754968643188477,"102":0.11257515102624893,"103":-0.5932886600494385,"104":-1.1708544492721558,"105":-0.8278335332870483,"106":-0.2628963887691498,"107":0.28139954805374146,"108":0.4679766297340393,"109":-0.2787289023399353,"110":-0.09026093035936356,"111":-0.03648557513952255,"112":-0.1868772804737091,"113":-0.6647828221321106,"114":-0.5115259289741516,"115":0.10663489997386932,"116":0.3754934072494507,"117":0.5677480101585388,"118":0.20451544225215912,"119":-0.17040598392486572,"120":-0.836677074432373,"121":-0.9361379146575928,"122":-0.07436750084161758,"123":0.18757720291614532,"124":-0.09767091274261475,"125":0.18181931972503662,"126":0.08735314756631851,"127":-0.06626729667186737,"128":-0.055524833500385284,"129":0.10253817588090897,"130":-0.04388189688324928,"131":-0.15701964497566223,"132":0.13375522196292877,"133":-0.12076489627361298,"134":0.09591174870729446,"135":-0.2928592562675476,"136":-0.5816799998283386,"137":0.08789459615945816,"138":0.17519111931324005,"139":0.10427109897136688}},"17":{"bias":-0.0725766196846962,"weights":{"0":-0.07210414111614227,"1":-0.15862718224525452,"2":0.15159910917282104,"3":-0.06677567958831787,"4":-0.19404369592666626,"5":0.12854522466659546,"6":0.07971959561109543,"7":-0.05036899819970131,"8":0.1897829920053482,"9":-0.1648339033126831,"10":-0.19590111076831818,"11":0.046063296496868134,"12":-0.02774696610867977,"13":-0.06704409420490265,"14":-0.23305541276931763,"15":0.018458502367138863,"16":-0.0500057078897953,"17":-0.05978389084339142,"18":-0.0744401067495346,"19":0.11392159759998322,"20":0.025616072118282318,"21":-0.2063474953174591,"22":-0.13708986341953278,"23":0.17048761248588562,"24":-0.012395063415169716,"25":0.012985516339540482,"26":0.0005458141677081585,"27":0.05061173811554909,"28":-0.4963286817073822,"29":-0.9212870597839355,"30":-0.6348879337310791,"31":0.1074453666806221,"32":-0.4264264404773712,"33":-0.26449722051620483,"34":-0.14784087240695953,"35":-0.2868496775627136,"36":-0.07019618153572083,"37":-0.3482860028743744,"38":0.3423927128314972,"39":0.10400796681642532,"40":-0.10780348628759384,"41":-0.061496488749980927,"42":0.5163129568099976,"43":-0.28980639576911926,"44":-0.11114411056041718,"45":0.13831646740436554,"46":-0.08917181193828583,"47":-0.24595364928245544,"48":0.1932300180196762,"49":0.03718087822198868,"50":-0.09058786183595657,"51":0.12735195457935333,"52":-0.1256643533706665,"53":0.1725786179304123,"54":0.372878760099411,"55":-0.03828927129507065,"56":0.7412745356559753,"57":0.05183492973446846,"58":0.09870363026857376,"59":0.49022340774536133,"60":0.017938565462827682,"61":0.09836521744728088,"62":-0.23570886254310608,"63":0.2940000891685486,"64":0.5354728102684021,"65":0.3101707994937897,"66":-0.4372854232788086,"67":0.3517010807991028,"68":0.09894444048404694,"69":0.021250953897833824,"70":0.2664416432380676,"71":0.05432521179318428,"72":-0.35431697964668274,"73":0.2661881446838379,"74":0.08450896292924881,"75":-0.7559916973114014,"76":0.1532728374004364,"77":0.7612124681472778,"78":0.2603268027305603,"79":-0.2654695510864258,"80":-0.7819599509239197,"81":0.16644802689552307,"82":-0.061083778738975525,"83":0.2997703552246094,"84":-0.0015413881046697497,"85":-0.24218392372131348,"86":-0.2692806124687195,"87":-0.3666362166404724,"88":-0.03293968737125397,"89":0.6299824118614197,"90":0.3271552324295044,"91":0.7637313008308411,"92":0.47392258048057556,"93":-0.07889536768198013,"94":-0.6062350273132324,"95":0.032946716994047165,"96":-0.09861202538013458,"97":-0.08027752488851547,"98":0.2847689986228943,"99":0.45927560329437256,"100":0.5601559281349182,"101":0.5010558366775513,"102":0.14804048836231232,"103":0.1311814785003662,"104":0.2399328351020813,"105":0.2904890179634094,"106":0.49640336632728577,"107":0.18832775950431824,"108":0.4656558930873871,"109":-0.29706770181655884,"110":-0.2793467938899994,"111":-0.2485968917608261,"112":0.03845888003706932,"113":-0.06057297810912132,"114":0.1560194045305252,"115":0.5478370785713196,"116":0.33527204394340515,"117":0.22794590890407562,"118":0.5074414014816284,"119":0.3860316872596741,"120":0.581343412399292,"121":0.6286907196044922,"122":0.625788688659668,"123":0.14711837470531464,"124":-0.047918662428855896,"125":0.08874571323394775,"126":0.18254655599594116,"127":-0.08209096640348434,"128":0.1603691428899765,"129":0.08933214843273163,"130":0.10913734883069992,"131":-0.12988674640655518,"132":0.09185248613357544,"133":0.08376026898622513,"134":-0.18061137199401855,"135":0.2210531085729599,"136":0.28444814682006836,"137":-0.13753831386566162,"138":0.008619454689323902,"139":0.12610380351543427}},"18":{"bias":0.24656450748443604,"weights":{"0":0.03950659558176994,"1":-0.21594716608524323,"2":0.1041318029165268,"3":-0.0542745515704155,"4":-0.18056952953338623,"5":-0.14394785463809967,"6":-0.016432128846645355,"7":-0.1167573556303978,"8":-0.04902849718928337,"9":-0.13455195724964142,"10":0.031438007950782776,"11":-0.07209081947803497,"12":0.13548186421394348,"13":-0.17471136152744293,"14":-0.024978378787636757,"15":-0.15164756774902344,"16":-0.22952163219451904,"17":0.0805901512503624,"18":-0.06583700329065323,"19":0.09568177908658981,"20":-0.16417376697063446,"21":-0.030178966000676155,"22":0.09296009689569473,"23":0.0012948857620358467,"24":-0.18534857034683228,"25":0.05839361622929573,"26":-0.17585085332393646,"27":0.20453530550003052,"28":0.09336922317743301,"29":0.2537730634212494,"30":0.6469838619232178,"31":-0.5110228061676025,"32":0.18713364005088806,"33":0.12431890517473221,"34":-0.21243363618850708,"35":0.14768008887767792,"36":0.20685923099517822,"37":0.16000157594680786,"38":-0.02743188850581646,"39":-0.06404764205217361,"40":-0.25136592984199524,"41":0.16610026359558105,"42":-0.1474490612745285,"43":-0.26168331503868103,"44":0.002248539822176099,"45":-0.08403253555297852,"46":0.22980660200119019,"47":-0.20316116511821747,"48":0.5042322874069214,"49":0.11009354144334793,"50":-0.3372953534126282,"51":-0.16866695880889893,"52":0.2751910388469696,"53":-0.16975614428520203,"54":0.245375856757164,"55":0.13551120460033417,"56":0.13685342669487,"57":-0.5245766639709473,"58":-0.2633318305015564,"59":0.11377672851085663,"60":-0.14046309888362885,"61":-0.14242838323116302,"62":0.07144024968147278,"63":-0.0214749313890934,"64":-0.25416049361228943,"65":-0.024116648361086845,"66":0.5813744068145752,"67":0.6267908215522766,"68":0.14516310393810272,"69":0.06929362565279007,"70":0.5435740947723389,"71":0.2615851163864136,"72":-0.4737437069416046,"73":-0.09112364798784256,"74":0.14679774641990662,"75":-1.1160069704055786,"76":-0.13154830038547516,"77":0.18254494667053223,"78":0.31293192505836487,"79":0.37818652391433716,"80":0.30484429001808167,"81":0.20333874225616455,"82":0.11600998789072037,"83":-0.003911912441253662,"84":0.09670576453208923,"85":-0.7508494257926941,"86":-0.5134562253952026,"87":-0.726114809513092,"88":-0.5551674962043762,"89":-0.47894933819770813,"90":0.464632511138916,"91":0.8787521123886108,"92":0.37668174505233765,"93":0.09388576447963715,"94":0.36684611439704895,"95":0.27247586846351624,"96":0.06263575702905655,"97":0.1842682957649231,"98":-0.10683631896972656,"99":-0.6242012977600098,"100":-0.5700158476829529,"101":-0.9781337976455688,"102":-0.2894934415817261,"103":0.09590035676956177,"104":-0.14284063875675201,"105":0.6781802773475647,"106":0.1723024845123291,"107":-0.04569721594452858,"108":-0.37378010153770447,"109":-0.045252617448568344,"110":-0.27206626534461975,"111":-0.38861116766929626,"112":-0.1813153326511383,"113":-0.03167830780148506,"114":-0.2514154613018036,"115":0.18773910403251648,"116":0.1591143161058426,"117":0.3972487151622772,"118":-0.035877518355846405,"119":0.007342817727476358,"120":0.21680837869644165,"121":0.0058491285890340805,"122":0.599833071231842,"123":0.1083342507481575,"124":-0.19674837589263916,"125":-0.16536444425582886,"126":0.14348936080932617,"127":-0.0982888787984848,"128":0.054905716329813004,"129":-0.08527932316064835,"130":-0.09188447147607803,"131":-0.147103413939476,"132":-0.09737389534711838,"133":0.17066524922847748,"134":-0.08531070500612259,"135":0.25082480907440186,"136":0.2479075789451599,"137":0.1976018249988556,"138":-0.11844314634799957,"139":0.01889263093471527}},"19":{"bias":0.618747889995575,"weights":{"0":0.017857493832707405,"1":0.09600739926099777,"2":0.1609949767589569,"3":0.0011267055524513125,"4":-0.009776683524250984,"5":-0.007550930138677359,"6":0.10823293775320053,"7":0.014367450959980488,"8":0.018754400312900543,"9":-0.004924030974507332,"10":0.17651844024658203,"11":-0.04416527971625328,"12":0.18142345547676086,"13":0.11446303129196167,"14":0.11051973700523376,"15":-0.2637937068939209,"16":-0.1198611706495285,"17":0.026547063142061234,"18":-0.22431862354278564,"19":0.10280010104179382,"20":0.005267260130494833,"21":-0.30325159430503845,"22":0.0987832248210907,"23":0.08563296496868134,"24":-0.19631671905517578,"25":-0.11100654304027557,"26":0.1497126668691635,"27":0.11659456044435501,"28":-0.07028231024742126,"29":0.6252995133399963,"30":0.4381416141986847,"31":0.7380397319793701,"32":0.019003871828317642,"33":0.13767921924591064,"34":0.06240762025117874,"35":-0.1535761058330536,"36":0.23733678460121155,"37":0.5386734008789062,"38":0.5715004801750183,"39":-0.09220535308122635,"40":-0.007697585504502058,"41":0.1949310302734375,"42":0.03528469428420067,"43":0.438066691160202,"44":0.19690173864364624,"45":-0.21611684560775757,"46":-0.22290754318237305,"47":-0.622119665145874,"48":0.12530861794948578,"49":-0.08590229600667953,"50":-0.23967482149600983,"51":-0.10214436799287796,"52":-0.4884202480316162,"53":-0.20981724560260773,"54":-0.4207339286804199,"55":0.06362439692020416,"56":-0.8520886301994324,"57":-0.3224808871746063,"58":0.08551334589719772,"59":0.4458428919315338,"60":0.04307660833001137,"61":-0.3322468101978302,"62":0.2412402182817459,"63":-0.03499138727784157,"64":-0.21872344613075256,"65":-0.2646954357624054,"66":-0.38212940096855164,"67":-0.5445113778114319,"68":-0.2775824964046478,"69":-0.2898664176464081,"70":-0.1595233976840973,"71":-1.0122195482254028,"72":-0.15382754802703857,"73":-0.036999158561229706,"74":-0.3297825753688812,"75":-0.2266644537448883,"76":0.3059171736240387,"77":0.2853419780731201,"78":-0.22743815183639526,"79":0.1948881596326828,"80":-0.04009881988167763,"81":-0.1638185977935791,"82":-0.11627376079559326,"83":-0.16191324591636658,"84":-0.2818908393383026,"85":0.0358063243329525,"86":0.21068157255649567,"87":0.4340927004814148,"88":0.301774799823761,"89":-0.4478236734867096,"90":0.2600138783454895,"91":0.4093705117702484,"92":-0.1696915477514267,"93":-0.11438525468111038,"94":-0.27455684542655945,"95":-0.401457279920578,"96":-0.4161849915981293,"97":-0.0034298356622457504,"98":-0.25940269231796265,"99":-0.5228688716888428,"100":0.05960933491587639,"101":-0.37483370304107666,"102":-0.5086168646812439,"103":-0.16971038281917572,"104":0.09833025187253952,"105":-0.03603750094771385,"106":0.26439398527145386,"107":0.12350749969482422,"108":-0.43716925382614136,"109":-0.5266918540000916,"110":-0.37429386377334595,"111":0.21992544829845428,"112":0.09970393776893616,"113":-0.2491074502468109,"114":-0.3364655673503876,"115":-0.25329288840293884,"116":-0.338460773229599,"117":-0.0014507151208817959,"118":-0.30230921506881714,"119":-0.4940010607242584,"120":-0.28994736075401306,"121":-0.2753036320209503,"122":-0.0611884631216526,"123":0.10175149887800217,"124":-0.04135897755622864,"125":0.04539474844932556,"126":0.031404055655002594,"127":-0.1915670931339264,"128":0.014897104352712631,"129":0.11672919243574142,"130":-0.07120542973279953,"131":0.11264349520206451,"132":0.12631775438785553,"133":0.03327000513672829,"134":0.17197608947753906,"135":0.08821232616901398,"136":-0.21737007796764374,"137":-0.16891826689243317,"138":0.08319766819477081,"139":0.12186753004789352}},"20":{"bias":0.5551056861877441,"weights":{"0":-0.01359669677913189,"1":0.22119587659835815,"2":-0.014815271832048893,"3":-0.16145293414592743,"4":0.13304799795150757,"5":0.14493954181671143,"6":0.19800607860088348,"7":0.16336889564990997,"8":-0.0393909215927124,"9":0.015430978499352932,"10":0.14158287644386292,"11":-0.12919992208480835,"12":-0.007139377761632204,"13":0.08014781773090363,"14":-0.07242415845394135,"15":0.17680610716342926,"16":0.1499224305152893,"17":0.18749697506427765,"18":-0.05763252452015877,"19":0.11245313286781311,"20":0.1255721151828766,"21":0.16112329065799713,"22":0.0716400071978569,"23":0.05343016982078552,"24":0.16912458837032318,"25":0.03083890862762928,"26":0.042110882699489594,"27":0.02168533205986023,"28":-0.062353041023015976,"29":-0.4409387707710266,"30":-0.27086493372917175,"31":0.23714694380760193,"32":-0.1683262139558792,"33":-0.4304114878177643,"34":0.3319768011569977,"35":-0.05994698405265808,"36":-0.1791868656873703,"37":-0.6332855820655823,"38":-0.9468111991882324,"39":-0.042158693075180054,"40":-0.15150845050811768,"41":-0.06743734329938889,"42":-0.12242039293050766,"43":0.39572614431381226,"44":-0.4913530945777893,"45":-0.31400614976882935,"46":0.6295453310012817,"47":0.0768413320183754,"48":0.2479473352432251,"49":0.3922390043735504,"50":0.17160794138908386,"51":0.3383655548095703,"52":-0.16793088614940643,"53":-0.22207731008529663,"54":-0.5805527567863464,"55":-0.48531854152679443,"56":-0.35501089692115784,"57":-0.2635035514831543,"58":-0.23771169781684875,"59":0.11227129399776459,"60":0.46255630254745483,"61":-0.5954250693321228,"62":-0.40776193141937256,"63":-0.2471800595521927,"64":-0.33974525332450867,"65":-0.1533248871564865,"66":-0.03848209232091904,"67":-0.3576103448867798,"68":-0.2939753532409668,"69":-0.585001528263092,"70":-0.15755952894687653,"71":-1.4005141258239746,"72":-0.3668968677520752,"73":-0.11729753017425537,"74":-0.10837874561548233,"75":0.31324270367622375,"76":-0.28449293971061707,"77":0.17231589555740356,"78":0.3458847403526306,"79":-0.09230972826480865,"80":-0.2558404207229614,"81":-0.28474193811416626,"82":-0.25112414360046387,"83":-0.2925111651420593,"84":-0.18051548302173615,"85":0.11054626107215881,"86":0.05274662747979164,"87":-0.0938853994011879,"88":0.10325884073972702,"89":-0.17993758618831635,"90":-0.2802920937538147,"91":0.20648612082004547,"92":-0.17344388365745544,"93":0.011687618680298328,"94":-0.041049521416425705,"95":-0.08493083715438843,"96":-0.355923593044281,"97":-0.3348795175552368,"98":0.2140575647354126,"99":0.12312418222427368,"100":0.13005295395851135,"101":0.919148325920105,"102":0.2927660346031189,"103":-0.23816776275634766,"104":-0.4404248893260956,"105":-0.5462930798530579,"106":-0.15312068164348602,"107":0.01078111119568348,"108":0.30334335565567017,"109":0.4133211374282837,"110":0.0061024767346680164,"111":0.12731122970581055,"112":0.14926458895206451,"113":-0.14556922018527985,"114":-0.09116662293672562,"115":0.5194945931434631,"116":0.6999366879463196,"117":0.3989947438240051,"118":0.87477046251297,"119":0.663560152053833,"120":0.5498260259628296,"121":0.2530381977558136,"122":-0.15738268196582794,"123":-0.13700658082962036,"124":0.009568210691213608,"125":-0.26812925934791565,"126":0.08987279236316681,"127":0.013178791850805283,"128":0.009188290685415268,"129":-0.07938490808010101,"130":0.06657099723815918,"131":0.17577040195465088,"132":-0.09205184131860733,"133":-0.07925372570753098,"134":-0.14485780894756317,"135":0.013972761109471321,"136":-0.15340544283390045,"137":0.06586037576198578,"138":-0.03557276725769043,"139":0.07247352600097656}},"21":{"bias":-0.13883158564567566,"weights":{"0":0.08458754420280457,"1":0.24449290335178375,"2":-0.0258661899715662,"3":0.15523792803287506,"4":0.12229236215353012,"5":-0.14894208312034607,"6":0.17517101764678955,"7":0.05907243862748146,"8":0.11726151406764984,"9":-0.09809908270835876,"10":-0.06667201220989227,"11":-0.12226186692714691,"12":0.08223044127225876,"13":-0.03950655832886696,"14":0.0744004175066948,"15":0.27937451004981995,"16":0.27175670862197876,"17":-0.04584839195013046,"18":0.04732075333595276,"19":-0.08479349315166473,"20":0.09253118187189102,"21":-0.01550263911485672,"22":0.002412301953881979,"23":0.18404753506183624,"24":0.11436104029417038,"25":0.14031706750392914,"26":0.14571203291416168,"27":-0.09834636747837067,"28":0.0580679327249527,"29":0.3404938578605652,"30":-0.4222467243671417,"31":-0.5107874274253845,"32":-0.07124263793230057,"33":0.24171942472457886,"34":0.5076570510864258,"35":0.24570654332637787,"36":0.05374578759074211,"37":-0.20151174068450928,"38":-0.6893839240074158,"39":0.1039649248123169,"40":-0.12696631252765656,"41":0.6570181250572205,"42":-0.08848937600851059,"43":0.20790626108646393,"44":0.9007081389427185,"45":0.04604649171233177,"46":-0.13576409220695496,"47":-0.09704547375440598,"48":0.41660624742507935,"49":0.4509226381778717,"50":0.5521895289421082,"51":0.5042588114738464,"52":-0.36065056920051575,"53":-0.2743525207042694,"54":0.29566946625709534,"55":0.23168212175369263,"56":0.48873981833457947,"57":0.5894210338592529,"58":0.32929661870002747,"59":0.399338960647583,"60":0.6491116285324097,"61":0.010307099670171738,"62":-0.25000882148742676,"63":-0.5187159776687622,"64":-0.5393257141113281,"65":-0.044440511614084244,"66":-0.33245983719825745,"67":0.566091001033783,"68":0.2502685785293579,"69":-0.12610217928886414,"70":-0.342796266078949,"71":0.23525545001029968,"72":-0.0630694180727005,"73":0.024267639964818954,"74":0.38190749287605286,"75":-0.12951603531837463,"76":0.2011171281337738,"77":-0.17163822054862976,"78":-0.2627851366996765,"79":-0.4106430411338806,"80":-0.29364848136901855,"81":0.15405912697315216,"82":-0.19911092519760132,"83":-0.38689130544662476,"84":-0.18406927585601807,"85":0.18387074768543243,"86":-0.13154245913028717,"87":-0.2579701840877533,"88":0.251525342464447,"89":0.10614702850580215,"90":0.10846661031246185,"91":0.09473355114459991,"92":0.010570012032985687,"93":-0.28253769874572754,"94":0.5167047381401062,"95":0.11128690838813782,"96":0.09530597925186157,"97":-0.17817804217338562,"98":-0.09049352258443832,"99":0.7962709069252014,"100":0.5384114384651184,"101":-0.22719988226890564,"102":0.07172168791294098,"103":-0.6723058223724365,"104":0.14007489383220673,"105":-0.16259703040122986,"106":-0.29053524136543274,"107":-0.20571045577526093,"108":-0.08843515068292618,"109":0.13653577864170074,"110":0.4234606921672821,"111":0.5242384076118469,"112":-0.15580058097839355,"113":0.8578909039497375,"114":0.30637043714523315,"115":-0.48158180713653564,"116":-0.19257913529872894,"117":-0.26562196016311646,"118":-0.27020400762557983,"119":0.058380961418151855,"120":-0.3860013782978058,"121":0.11542702466249466,"122":-0.16357144713401794,"123":0.09024664759635925,"124":-0.07120393961668015,"125":-0.029844289645552635,"126":0.06695340573787689,"127":0.21437345445156097,"128":-0.06598908454179764,"129":0.13791179656982422,"130":-0.12776128947734833,"131":0.16779397428035736,"132":-0.009773075580596924,"133":-0.002624168526381254,"134":0.15604963898658752,"135":-0.15344001352787018,"136":-0.05889066308736801,"137":0.05701494961977005,"138":0.08750446885824203,"139":-0.1120167151093483}},"22":{"bias":0.37447017431259155,"weights":{"0":-0.06919607520103455,"1":-0.09324430674314499,"2":-0.03539972007274628,"3":-0.18452978134155273,"4":0.11862906813621521,"5":-0.1311659961938858,"6":-0.18990346789360046,"7":0.09665922820568085,"8":0.1451149582862854,"9":0.12090867757797241,"10":-0.013143369928002357,"11":0.06840934604406357,"12":0.10545460134744644,"13":-0.04079459607601166,"14":0.03009093552827835,"15":0.09442742168903351,"16":-0.18486785888671875,"17":0.12846402823925018,"18":0.09330955147743225,"19":-0.08128774166107178,"20":-0.12290991097688675,"21":0.06685630977153778,"22":-0.07556222379207611,"23":0.12660884857177734,"24":-0.12952901422977448,"25":0.12331731617450714,"26":-0.056394871324300766,"27":-0.30718234181404114,"28":0.45407140254974365,"29":0.4825945794582367,"30":0.43880829215049744,"31":-0.2514914274215698,"32":-0.4778764545917511,"33":-0.10360244661569595,"34":-0.30445125699043274,"35":-0.3620830774307251,"36":0.024795973673462868,"37":0.1257762908935547,"38":0.05719484016299248,"39":-0.1299421191215515,"40":-0.1229601576924324,"41":-0.28002461791038513,"42":0.45662328600883484,"43":0.014819602482020855,"44":0.008645757101476192,"45":-0.2965383231639862,"46":-0.01766275055706501,"47":-0.17133153975009918,"48":-0.29869934916496277,"49":0.6413734555244446,"50":0.038411278277635574,"51":-0.15752916038036346,"52":0.12771406769752502,"53":0.26433926820755005,"54":0.39858853816986084,"55":-0.13982808589935303,"56":0.15192660689353943,"57":0.5764147043228149,"58":-0.19954806566238403,"59":0.04630871117115021,"60":0.22059746086597443,"61":-0.4266073703765869,"62":-0.647514283657074,"63":0.19639790058135986,"64":0.05440725386142731,"65":0.4330642521381378,"66":0.4015241861343384,"67":-0.11991153657436371,"68":0.3720623254776001,"69":-0.04251239821314812,"70":-0.07625212520360947,"71":-0.16691754758358002,"72":-0.0501890666782856,"73":0.12017203122377396,"74":0.33592674136161804,"75":-0.10784560441970825,"76":-0.349226176738739,"77":0.20286278426647186,"78":-0.10653840005397797,"79":-0.004599631763994694,"80":-0.271283894777298,"81":-0.3356805145740509,"82":-0.09839844703674316,"83":-0.21788333356380463,"84":-0.028905067592859268,"85":0.013558708131313324,"86":-0.054554298520088196,"87":-0.0053496467880904675,"88":0.5591066479682922,"89":0.3466026186943054,"90":-0.12375889718532562,"91":-0.03827805072069168,"92":-0.2180323302745819,"93":0.15182583034038544,"94":-0.7124597430229187,"95":-0.22566743195056915,"96":0.05442899838089943,"97":0.06339199095964432,"98":-0.17424803972244263,"99":-0.3412820100784302,"100":-0.005125024355947971,"101":0.015847548842430115,"102":0.5357763767242432,"103":0.4730808436870575,"104":0.6481801271438599,"105":0.17417815327644348,"106":0.2375180870294571,"107":-0.3556593954563141,"108":-0.7436650395393372,"109":0.20651769638061523,"110":0.18278969824314117,"111":-0.305200457572937,"112":0.13495813310146332,"113":-0.11856698989868164,"114":0.07304570823907852,"115":-0.14607909321784973,"116":-0.09307979792356491,"117":0.16904547810554504,"118":-0.19232772290706635,"119":-0.22239722311496735,"120":-0.5559595227241516,"121":-0.5322830080986023,"122":-0.42390626668930054,"123":-0.15348267555236816,"124":0.17992399632930756,"125":-0.20024563372135162,"126":0.038741908967494965,"127":0.005296021234244108,"128":-0.0454464852809906,"129":-0.03942157328128815,"130":0.07065041363239288,"131":0.14842604100704193,"132":-0.16811591386795044,"133":0.1191575676202774,"134":-0.1835460066795349,"135":-0.19927392899990082,"136":-0.28482192754745483,"137":0.04953668266534805,"138":0.18095695972442627,"139":0.07583386451005936}},"23":{"bias":0.15546776354312897,"weights":{"0":-0.016750400885939598,"1":-0.07312333583831787,"2":0.14577919244766235,"3":0.16125252842903137,"4":0.1096741333603859,"5":0.05319308489561081,"6":0.12572550773620605,"7":-0.11127710342407227,"8":-0.15806080400943756,"9":0.19541563093662262,"10":-0.030353907495737076,"11":0.012431868351995945,"12":-0.19512085616588593,"13":-0.12885349988937378,"14":0.04934912919998169,"15":0.21516495943069458,"16":0.15220017731189728,"17":0.14858543872833252,"18":0.18268033862113953,"19":-0.1061607301235199,"20":-0.11815369874238968,"21":0.04169946536421776,"22":0.06396748870611191,"23":0.05379961431026459,"24":-0.13265135884284973,"25":-0.17869651317596436,"26":-0.15867282450199127,"27":-0.025458425283432007,"28":-0.17796535789966583,"29":-0.003964201081544161,"30":0.13536737859249115,"31":0.03471236675977707,"32":-0.3447074592113495,"33":-0.34662172198295593,"34":-0.10254514962434769,"35":0.36376553773880005,"36":-0.00808209553360939,"37":0.40070056915283203,"38":-0.07439680397510529,"39":-0.20649354159832,"40":-0.35616937279701233,"41":-0.16791221499443054,"42":0.29701679944992065,"43":-0.16040650010108948,"44":-0.12637107074260712,"45":-0.5632274150848389,"46":-0.6953104734420776,"47":-0.9563417434692383,"48":-0.25013962388038635,"49":0.41272425651550293,"50":-0.27848151326179504,"51":-0.20971593260765076,"52":-0.08345647156238556,"53":0.2134407013654709,"54":-0.24133071303367615,"55":-0.1860133409500122,"56":0.48658227920532227,"57":-0.2529227137565613,"58":0.3325863778591156,"59":0.45364823937416077,"60":0.13068708777427673,"61":0.4704945981502533,"62":0.3273288905620575,"63":0.3816593885421753,"64":0.18959636986255646,"65":-0.007531702984124422,"66":0.015919174998998642,"67":0.0370606891810894,"68":-0.23741362988948822,"69":-0.10013939440250397,"70":0.4111960232257843,"71":-0.3365233838558197,"72":0.22545455396175385,"73":-0.12368877232074738,"74":0.09397993981838226,"75":-0.010010858997702599,"76":-0.2512946128845215,"77":0.18436485528945923,"78":0.23737557232379913,"79":-0.19279393553733826,"80":-0.4209614098072052,"81":-0.12337948381900787,"82":-0.09977760910987854,"83":-0.08195126056671143,"84":0.05566363036632538,"85":-1.0093210935592651,"86":-0.3434169590473175,"87":-0.23651090264320374,"88":-0.4644329249858856,"89":-0.2724578380584717,"90":0.12587203085422516,"91":0.2588888108730316,"92":-0.2669518291950226,"93":-0.06394270062446594,"94":0.1437169909477234,"95":0.42375698685646057,"96":-0.041249025613069534,"97":-0.17794793844223022,"98":0.3326602578163147,"99":-0.4392735958099365,"100":0.025331178680062294,"101":-0.27233442664146423,"102":-0.08800853043794632,"103":0.1800239086151123,"104":0.2156163603067398,"105":0.6500744819641113,"106":0.266984760761261,"107":0.16579262912273407,"108":0.7757394909858704,"109":-0.19139814376831055,"110":-0.2821907103061676,"111":-0.08434178680181503,"112":0.030795268714427948,"113":0.1977948397397995,"114":0.12034382671117783,"115":0.2365293800830841,"116":-0.011174192652106285,"117":-0.060963038355112076,"118":0.27698445320129395,"119":0.49243074655532837,"120":0.5001364350318909,"121":0.17575345933437347,"122":-0.003939408343285322,"123":0.05610993877053261,"124":0.028967682272195816,"125":0.17806677520275116,"126":-0.09216039627790451,"127":0.06547562032938004,"128":-0.12018859386444092,"129":-0.12190869450569153,"130":0.04736435413360596,"131":-0.020712770521640778,"132":-0.034154873341321945,"133":0.17205771803855896,"134":-0.08795644342899323,"135":-0.009059972129762173,"136":-0.06279847025871277,"137":-0.1428399235010147,"138":0.016768427565693855,"139":-0.03292970359325409}},"24":{"bias":-0.05446452647447586,"weights":{"0":0.19812297821044922,"1":0.22561155259609222,"2":0.01487742830067873,"3":0.05807461589574814,"4":-0.0969519317150116,"5":-0.025340190157294273,"6":-0.18325017392635345,"7":0.11394995450973511,"8":0.009251154959201813,"9":0.02724801003932953,"10":-0.09276878088712692,"11":0.1828489899635315,"12":0.10097651928663254,"13":-0.060401514172554016,"14":0.20102369785308838,"15":0.22946570813655853,"16":0.294493168592453,"17":0.2371363639831543,"18":-0.06527672708034515,"19":0.2105778008699417,"20":0.061231475323438644,"21":-0.10326921194791794,"22":-0.11790726333856583,"23":0.09200148284435272,"24":-0.1565307378768921,"25":-0.03912078216671944,"26":-0.14268134534358978,"27":-0.15878555178642273,"28":0.12777450680732727,"29":0.36604031920433044,"30":0.1530456691980362,"31":-0.5631188750267029,"32":-0.022332295775413513,"33":0.44215914607048035,"34":0.17386746406555176,"35":-0.5547391772270203,"36":-0.43558409810066223,"37":0.0034350247588008642,"38":0.22145774960517883,"39":0.00032924782135523856,"40":0.19619499146938324,"41":0.23982495069503784,"42":0.3502565622329712,"43":0.04652100428938866,"44":0.5549524426460266,"45":0.08543377369642258,"46":-0.2592948377132416,"47":-0.4914270341396332,"48":-0.36481428146362305,"49":-0.26520687341690063,"50":0.24811270833015442,"51":-0.026159606873989105,"52":-0.34702107310295105,"53":-0.34163159132003784,"54":-0.07063601911067963,"55":-0.2609657049179077,"56":0.19111678004264832,"57":0.239018052816391,"58":0.39873337745666504,"59":0.06267483532428741,"60":0.1463819444179535,"61":0.2992132902145386,"62":-0.07104361802339554,"63":-0.46384570002555847,"64":0.15085960924625397,"65":0.3464445173740387,"66":-0.5328713059425354,"67":-0.6315838694572449,"68":-0.00019852208788506687,"69":-0.11355750262737274,"70":-0.24867479503154755,"71":0.31762900948524475,"72":-0.3557955324649811,"73":-0.08950796723365784,"74":-0.10396180301904678,"75":0.7045690417289734,"76":0.5923458337783813,"77":-0.010675996541976929,"78":-0.06899547576904297,"79":0.21291476488113403,"80":-0.15503829717636108,"81":-0.3785668909549713,"82":0.019085068255662918,"83":0.07235315442085266,"84":-0.04610879719257355,"85":0.056165460497140884,"86":-0.1796061098575592,"87":-0.3001609742641449,"88":0.08374665677547455,"89":0.31257376074790955,"90":0.5108782649040222,"91":0.12201239168643951,"92":0.07011029869318008,"93":-0.09200441092252731,"94":-0.3494187295436859,"95":-0.337315171957016,"96":-0.24855153262615204,"97":-0.011330386623740196,"98":-0.20625640451908112,"99":-0.035014405846595764,"100":0.03101731650531292,"101":-0.18903911113739014,"102":-0.27402693033218384,"103":0.7880266308784485,"104":0.7252495884895325,"105":-0.19670888781547546,"106":0.18888503313064575,"107":-0.2608957588672638,"108":-0.7783135175704956,"109":-0.16309775412082672,"110":-0.10623524338006973,"111":-0.06756556034088135,"112":0.0800207108259201,"113":0.4920494854450226,"114":0.3937503397464752,"115":-0.129428893327713,"116":0.0888700783252716,"117":0.32224810123443604,"118":-0.03577530384063721,"119":-0.2835420072078705,"120":-0.3546036183834076,"121":0.0027419505640864372,"122":0.2990943193435669,"123":-0.04599109664559364,"124":0.024448366835713387,"125":-0.08951349556446075,"126":0.013016236945986748,"127":0.21170133352279663,"128":-0.08201818913221359,"129":0.013661019504070282,"130":-0.018203679472208023,"131":0.007762685883790255,"132":-0.09491321444511414,"133":0.11290392279624939,"134":0.07515426725149155,"135":-0.18543976545333862,"136":-0.16487739980220795,"137":0.0033932821825146675,"138":0.0775984600186348,"139":-0.13635744154453278}},"25":{"bias":-0.25895750522613525,"weights":{"0":0.1455841213464737,"1":0.05305507034063339,"2":0.15579307079315186,"3":0.10155484825372696,"4":-0.10361935198307037,"5":-0.09914156049489975,"6":0.12485507875680923,"7":-0.14979520440101624,"8":0.02906123176217079,"9":0.0715835690498352,"10":-0.021988078951835632,"11":-0.14132501184940338,"12":0.16185957193374634,"13":0.13285697996616364,"14":0.05081295967102051,"15":-0.21226325631141663,"16":-0.12197845429182053,"17":0.10894297808408737,"18":-0.008067931048572063,"19":0.17810271680355072,"20":-0.18241629004478455,"21":-0.12804342806339264,"22":-0.18500885367393494,"23":0.16641290485858917,"24":0.1547761857509613,"25":0.13325899839401245,"26":-0.16590330004692078,"27":0.2401333898305893,"28":-0.23542813956737518,"29":-0.5128470659255981,"30":-0.031003495678305626,"31":0.14021706581115723,"32":-0.025647467002272606,"33":-0.07863889634609222,"34":0.13983364403247833,"35":0.08812839537858963,"36":-0.0883622020483017,"37":0.2669788897037506,"38":0.6635706424713135,"39":0.008533616550266743,"40":0.312372624874115,"41":-0.03227103874087334,"42":0.18145394325256348,"43":-0.078287772834301,"44":-0.1707703322172165,"45":-0.5489277839660645,"46":-0.5723850131034851,"47":-0.25920534133911133,"48":0.01564444601535797,"49":-0.4200362265110016,"50":-0.09013451635837555,"51":-0.19057120382785797,"52":0.13929779827594757,"53":0.14948102831840515,"54":0.5713066458702087,"55":-0.05351654067635536,"56":0.5013688206672668,"57":0.3711117208003998,"58":0.0482950434088707,"59":0.001934691215865314,"60":0.10458830744028091,"61":0.4619964063167572,"62":0.5291635394096375,"63":0.1963205635547638,"64":0.22212336957454681,"65":0.4820859730243683,"66":0.47212865948677063,"67":0.12433972209692001,"68":0.010868668556213379,"69":0.42112669348716736,"70":-0.029470395296812057,"71":-0.3270066976547241,"72":-0.31231603026390076,"73":-0.422610342502594,"74":-0.24090547859668732,"75":1.138669729232788,"76":0.2393903136253357,"77":0.2505939304828644,"78":-0.2163180112838745,"79":0.31888172030448914,"80":0.30985158681869507,"81":-0.46180248260498047,"82":-0.6163312792778015,"83":0.3018309473991394,"84":0.37513530254364014,"85":-0.16476944088935852,"86":-0.232665553689003,"87":0.07693569362163544,"88":-0.2512960135936737,"89":-0.2995043098926544,"90":-0.31294021010398865,"91":-0.26236221194267273,"92":-0.3362031579017639,"93":-0.11243530362844467,"94":0.4513222873210907,"95":0.6997456550598145,"96":0.4315759241580963,"97":0.5164211988449097,"98":0.20162247121334076,"99":-0.2867133915424347,"100":-0.09509475529193878,"101":0.2495471090078354,"102":-0.044615909457206726,"103":-0.31742456555366516,"104":0.17453759908676147,"105":-0.5039713978767395,"106":-0.34848442673683167,"107":-0.3571338355541229,"108":0.8951005935668945,"109":0.8005984425544739,"110":0.4493906795978546,"111":-0.15744778513908386,"112":0.10068836063146591,"113":-0.11608333140611649,"114":0.044462837278842926,"115":-0.0989101231098175,"116":-0.09429045766592026,"117":-0.2654750645160675,"118":0.17778503894805908,"119":0.048094943165779114,"120":-0.3151654899120331,"121":-0.30181923508644104,"122":0.17965401709079742,"123":0.20640943944454193,"124":0.185872420668602,"125":-0.0174044631421566,"126":0.08246069401502609,"127":-0.12417478859424591,"128":-0.09413962066173553,"129":0.1555461287498474,"130":0.13730517029762268,"131":0.14023041725158691,"132":-0.04101068153977394,"133":-0.11915909498929977,"134":0.1870790719985962,"135":-0.09127151966094971,"136":-0.0728927031159401,"137":0.14127042889595032,"138":-0.08437785506248474,"139":-0.09969250857830048}},"26":{"bias":-0.007499859668314457,"weights":{"0":0.07466649264097214,"1":-0.07080278545618057,"2":0.1909523755311966,"3":-0.00004887179238721728,"4":-0.11207517236471176,"5":0.14718659222126007,"6":0.09336080402135849,"7":0.13515572249889374,"8":0.18334630131721497,"9":-0.029389705508947372,"10":0.09460192918777466,"11":-0.09834720194339752,"12":0.18967846035957336,"13":0.05203405022621155,"14":0.06523840874433517,"15":0.06804404407739639,"16":-0.03934440761804581,"17":-0.03613109886646271,"18":0.20477253198623657,"19":0.08363226056098938,"20":0.06069043278694153,"21":-0.07432416826486588,"22":-0.19216127693653107,"23":-0.19284798204898834,"24":-0.136471226811409,"25":0.17389549314975739,"26":-0.1592588573694229,"27":-0.2878999412059784,"28":0.3551991581916809,"29":0.7427895069122314,"30":0.5902800559997559,"31":0.7212311625480652,"32":0.3077525496482849,"33":0.11256009340286255,"34":0.1708081215620041,"35":0.19285662472248077,"36":0.33428019285202026,"37":0.05345381423830986,"38":0.7187208533287048,"39":0.05696840211749077,"40":-0.2830197215080261,"41":-0.4930989444255829,"42":-0.1892780214548111,"43":0.34033459424972534,"44":-0.01178107038140297,"45":-0.16651059687137604,"46":0.048796020448207855,"47":0.1693716049194336,"48":0.1669149100780487,"49":0.554270327091217,"50":0.3025210499763489,"51":0.4144306778907776,"52":0.46856337785720825,"53":-0.027889173477888107,"54":-0.12500855326652527,"55":-0.20140163600444794,"56":0.08523007482290268,"57":-0.24169202148914337,"58":-0.3732965588569641,"59":-0.714311957359314,"60":-0.2378639578819275,"61":-0.0774354636669159,"62":-0.3159385919570923,"63":-0.023312784731388092,"64":0.015372523106634617,"65":-0.2632695138454437,"66":0.14270535111427307,"67":-0.13569995760917664,"68":-0.3444797396659851,"69":-0.18015320599079132,"70":0.49445512890815735,"71":-0.16426187753677368,"72":0.037426967173814774,"73":-0.23432454466819763,"74":0.30741086602211,"75":0.21215033531188965,"76":-0.14468418061733246,"77":0.5772215127944946,"78":0.33590537309646606,"79":-0.22634072601795197,"80":-0.4983629286289215,"81":0.1773969978094101,"82":0.1609691083431244,"83":0.2370426505804062,"84":-0.18813270330429077,"85":-0.017992757260799408,"86":-0.2924584746360779,"87":-0.2683245539665222,"88":-0.5170056223869324,"89":-0.13093160092830658,"90":-0.39480000734329224,"91":-0.16741563379764557,"92":0.05901257321238518,"93":0.17231214046478271,"94":0.08115192502737045,"95":-0.04868023470044136,"96":-0.013511845842003822,"97":-0.2701686918735504,"98":-0.055350665003061295,"99":-0.1985069066286087,"100":-0.2633070647716522,"101":-0.2144307941198349,"102":-0.17657876014709473,"103":-0.4496873915195465,"104":-0.7175116539001465,"105":-0.11413391679525375,"106":-0.42370516061782837,"107":-0.5551536083221436,"108":0.28364041447639465,"109":-0.03126305714249611,"110":-0.0506410077214241,"111":-0.07997439056634903,"112":0.01412314735352993,"113":0.24198248982429504,"114":0.006230819504708052,"115":0.41710320115089417,"116":0.14117228984832764,"117":0.15652932226657867,"118":-0.35484784841537476,"119":-0.5390901565551758,"120":-0.20441386103630066,"121":0.0666673332452774,"122":0.472813218832016,"123":0.13990172743797302,"124":-0.08821740746498108,"125":-0.08926699310541153,"126":0.17308850586414337,"127":-0.005673936102539301,"128":0.15102525055408478,"129":0.017531640827655792,"130":0.052991077303886414,"131":-0.1609392613172531,"132":0.028259174898266792,"133":0.03602499142289162,"134":-0.14404931664466858,"135":0.183362677693367,"136":0.08301390707492828,"137":0.17632129788398743,"138":0.19148550927639008,"139":-0.07238027453422546}},"27":{"bias":-0.0018389933975413442,"weights":{"0":-0.14454783499240875,"1":0.020632747560739517,"2":0.12238519638776779,"3":0.19786323606967926,"4":0.12066623568534851,"5":0.0826662927865982,"6":-0.0721811056137085,"7":-0.038882337510585785,"8":0.16337737441062927,"9":0.07796300947666168,"10":-0.13146811723709106,"11":-0.05225281044840813,"12":-0.15226444602012634,"13":0.16787797212600708,"14":-0.056856803596019745,"15":0.23061122000217438,"16":-0.014055882580578327,"17":-0.07329509407281876,"18":0.147491455078125,"19":0.11614019423723221,"20":-0.16124121844768524,"21":-0.25289320945739746,"22":-0.14078667759895325,"23":0.18594449758529663,"24":-0.044987913221120834,"25":0.08402637392282486,"26":-0.05322618782520294,"27":0.024709783494472504,"28":-0.11779037117958069,"29":-0.25393444299697876,"30":-0.31509265303611755,"31":-0.5595796704292297,"32":-0.013339772820472717,"33":0.2510188817977905,"34":0.2767737805843353,"35":0.09855109453201294,"36":-0.002349257469177246,"37":-0.4005294442176819,"38":-0.5798435211181641,"39":-0.08041619509458542,"40":0.011332320980727673,"41":0.1737779825925827,"42":-0.11454346030950546,"43":0.01652035117149353,"44":0.04384850338101387,"45":0.30979323387145996,"46":-0.22491493821144104,"47":-0.37859922647476196,"48":0.0808984637260437,"49":0.0490444153547287,